200 100
the 0.4139233664846086 1.0740612519436106 0.3114016325369906 0.6826617322758254 0.6013283834610554 0.67341932234605 0.42029519452085284 0.6225015958601247 0.8758184941244195 0.5791983265753853 0.04499759266711196 0.5330526845899927 0.16354415971778993 0.27071069156234523 0.9474024173162958 0.9213744952254009 -0.11095971587236017 0.03306390210099023 0.4303327486722625 0.06187769466146205 -0.15883410939913853 0.5389668728227521 0.39756448522659854 -0.005743228275506559 0.7215156911708202 0.5129371145533955 0.1246373741630196 -0.030907120859782655 0.4607949371893289 0.760607049905428 -0.2542764429688551 0.3814246911454482 0.15888347529020197 -0.03698538783997274 -0.08768314271167721 1.100267690719599 -0.45314289392105184 0.6061739231299785 0.707026414938437 0.5561958373058219 0.06044118144189292 0.6144681636034517 0.18158863173580167 0.7032669990147383 0.329015517117187 0.3088119525564354 0.9393798006355882 0.46656626858327804 0.26169184458816486 0.3909261723250068 0.7082014739977345 0.4423437435409947 0.39739552669821876 -0.1636134079234015 0.2403073362917458 0.6087413508411208 0.3154793175113631 0.23213800073389246 0.6503121585640106 0.35819745420341426 0.9723421499988891 1.118901064070637 0.36904353967467396 0.41578482414758733 0.24279368644633487 0.623963396670579 0.20164889988974016 0.39761146088846644 0.631069960392649 0.06118820265489782 0.45395505383183055 0.47060661181778934 -0.02623219019001472 0.36917728364168273 0.12032943440813387 1.1596201345642618 0.5015191093949544 -0.04482596882765788 0.4120428289606051 -0.13939913445516106 0.5795154604571477 0.2557924970291948 0.5761505546015653 0.0034775664527180077 0.40266136476921044 0.5985849153077613 0.4133366151198855 -0.12319703495475882 0.06816847335135495 0.31081125086063177 0.6018288389153164 0.6921519746923994 -0.19565055650314825 0.4464838375562749 0.7800391505589646 -0.09680313948181582 0.24862715468009675 0.7067102038628691 0.1159643557102488 0.25650273998026457 
 0.7779549160888409 0.93335801706485 0.41064132927426583 0.07989940581694845 0.4046341514389017 0.49441521854212706 0.6553570061993428 0.7793052616003125 1.066355331261729 0.38373214666174726 0.6334434014939095 0.18995416712188753 0.10871648847839457 0.507484468603931 0.6321096960432885 0.7448546050773978 0.10754921670844972 -0.17038345987586306 0.004441507873798862 0.004662103370256577 0.13413095824531948 0.34144921390863925 0.3921601848889208 -0.16408896690549743 0.8475306264166995 0.29994500655763545 -0.15692416992734468 -0.20457618875860156 0.3196623478633681 0.5032448133141638 0.1296521413490822 0.7192225867279736 0.35585782798037247 0.313857903836831 0.1416457221531762 0.9028241010597021 0.17087762288066088 0.24168082802238675 0.5282077884209903 0.7208194074531332 0.14587783562792386 0.635279756358934 0.40504686433840786 0.40222473917940316 0.5895458572458508 0.14777811902835192 0.5173349249555778 0.28432189289708354 0.1870800160964579 0.0818337957198493 0.8375067421589132 0.41493101053158954 0.15133416584290324 0.08022264582562029 0.21545219837803473 0.45906447191690675 0.3764191767920214 0.502346623085108 0.8163230156243052 -0.013844616227483399 0.6325597272133231 1.0358325906425865 0.45378424266275125 0.8075249253426272 0.31685588573756107 0.1546016930364067 0.10169810201232811 0.03168820775272649 0.7467820672699756 0.0919410382777324 0.2553480666017018 0.7583917889653629 0.03905086101706351 0.25983206680342547 0.453496568058421 1.1404917640725192 0.16178443254079142 -0.2168673296471789 0.05240915121341611 -0.3983796750397219 0.20620700376770798 -0.00959934109419389 0.5569480699942793 0.6797097513362577 1.1404726186327907 0.33959517736998 0.6161016177987093 -0.057984561693914985 0.04155043482576847 0.15712486198029368 0.1214695839704763 0.39331877825638567 0.1522992291715273 0.5518259405006001 0.5226549723209661 0.3928637708374647 0.675091847920771 0.4322819367027606 0.36502047093017764 0.04830285253059757 
. 0.2988956535329892 0.3931668055366913 0.07178681837294384 0.41540546519234534 0.009252112319903655 0.8347501290325066 0.3145533291471118 0.15357185192961262 0.47168010889039075 0.4761940743033412 0.3548361391185547 0.2517061611045914 0.4223996354743413 0.009088073160668547 0.5670695006988488 0.6691583939283425 0.04448049958622096 0.16970446643037468 0.3164571016535519 -0.10639234548887518 -0.23724870240920673 0.6286006132035382 0.07822217095313583 0.02851083975541863 0.8703159056182892 0.3866035187515798 0.1115813472680476 -0.07304531365124876 0.23347402556008323 0.4271930239453653 0.12980994717748676 0.473298811546137 0.47742697268197226 0.21701376172823636 0.5805189678959192 0.9553431497184447 -0.3609144430694341 0.43465227935895145 0.5350421602046729 0.30763227455487624 0.44392726356688356 0.14754430592717407 0.25304017368336623 0.5756619525171575 0.732507992309057 0.45922275744884006 1.048149477549699 0.24665426874693247 0.011809357546222976 0.03365927698018622 0.8874652585168611 0.3062211884573522 0.41254483272141956 -0.2660471749169823 0.12351558333739222 0.7363719220507389 -0.0051531312929335524 0.6496866124641452 0.5015915122919045 -0.15323383740333058 0.9842021853477436 0.6117815007700934 0.46844771297730275 0.7866876824876846 0.9274462738238314 0.06719767793616198 -0.23918984239291313 0.12932959354430376 0.7049043709855992 0.22133960890491416 0.7111608967806395 0.5620661940030318 0.002818050008575268 0.39639414250046057 0.6038361949394893 1.3048695576932179 0.5333523080688832 -0.2634779396463261 -0.018462228480620752 0.1395903064214961 0.33355399668597296 -0.06776796376897484 0.34921204441538445 0.11487768552593242 0.7676067319047474 0.8261905745718356 0.5168880690363338 0.43115810158861384 0.08934162876474658 0.46996878436181017 0.5585483495540432 0.9696694255635062 0.17874313128470823 0.2483490748026379 0.33871103690039633 -0.09158911146085505 0.7598713670627726 0.12013764855745204 0.12243995613062397 -0.0009683777359527851 
to 0.6250697505713223 0.9390236589042618 0.44658814066307223 0.8219595844752008 0.242467628297559 0.7492284591682309 0.8220737902235592 0.5094675627586714 0.8645106320974301 0.7094311587338394 0.3268378601638742 -0.11787031426096808 0.22864719841413436 -0.00976374370108982 0.4652168110396394 0.400837797532155 -0.0441729488942201 0.35804463215364357 0.21687731371895183 0.15754116143324884 -0.010165646801867687 0.17449966672223519 0.13021806819725626 0.1519984972754643 0.6739356127705828 0.6224312314066184 0.4373403672593947 -0.17927353596053622 -0.14978610368403406 0.20325664725180642 -0.13063755845873098 0.5107513309122587 0.3520377636754858 0.3836640137010207 -0.15099990267056437 0.98480810849665 -0.12923445403898498 0.12155560095218372 0.7159426831593673 0.3499480660826636 0.2626679427029007 0.6355084719277099 0.1950531021235301 0.3256637469053338 0.039859887216124115 0.05527396730503414 0.9070278674963991 0.3913310212530423 0.048637246093034554 0.03705353509424012 0.5854395146610413 0.675628090704385 0.3317400601341603 0.3558332540519834 0.05165767782217983 0.7110525174900327 -0.05224491031652627 0.6131125401844012 0.49137761452830125 0.1387053635189698 0.27046295721703423 0.5802517436734176 0.047912996278872536 0.5862702769219019 0.36324315988957856 0.5505690285855014 -0.047789975385621734 0.15128112924241605 0.20031010064984045 0.030671275672097615 0.4651999252452355 0.4433888239210349 0.05173294188930002 0.45105562329643284 0.16535384975986586 0.6002675615386672 0.5097090056254704 0.004256235191709942 0.4958369600190197 -0.43035349045604565 0.1901528968963357 0.37515644480859683 0.3723175221903478 0.5745230601771016 0.4963524523188971 0.2702520896980846 0.5201336213898571 0.35868054871717536 -0.3696514976738099 0.07703189667230691 0.6845364942820953 0.42735135900858384 0.31579462680384823 0.5575477176458853 0.5789934350012218 -0.24500825859469705 0.4308031333133104 0.31031099830113007 0.4666444557932457 0.035406254718116904 
a 0.4555560781094464 0.7689461239829127 0.11502287827175804 0.35780206138144754 0.2763477242634037 0.6376296924485394 0.7057583592910006 0.6147181673335698 0.8322263944520893 0.6437567663999492 0.31686814806113206 0.5068828093336168 0.06676965464594684 0.2004117655560546 0.32125210731414544 0.6399816183068973 0.20224943676850823 -0.27911958391283087 -0.05164745979733014 0.13012768909902506 0.22127310239605216 0.07907652271470228 0.6799829948196663 0.332009010818812 0.7353619104677278 0.5948129576975446 -0.0097857786186973 -0.03836643195669828 0.08982274591209101 0.035508158136178226 0.19055156300821996 0.504486480340261 0.033633629771113775 0.208209461264568 -0.001550388362263011 0.6623753032689924 -0.10036739007812402 0.08820598404075246 0.12419750092208513 0.12742292387030832 0.19407875959212764 0.29434151124917524 0.7294822932293025 0.2920078286057975 0.2521067526479207 0.08150934246042721 0.5916086607942046 0.139403653498057 -0.06963342850516145 0.661941616405759 0.663309825260644 0.9589422101072583 0.19685233058658885 -0.18076005633981132 0.41414782552247004 0.5485729205472789 0.31805227729391544 0.16605861347694123 0.020115408176663695 0.4991906749132134 0.29049258860557886 0.3334481672998399 0.4932232540478661 0.472583964101785 0.2905765176257175 0.3787934480028666 -0.23718782036713326 0.5218830047287696 0.006907756122556086 -0.0876075678209252 0.33744192658456723 0.18046646479307243 0.33004974004274085 0.05350054550739311 0.02698337627952931 0.4951185433250341 -0.15776520625240117 0.031239263221874237 0.25242760440177997 -0.30928471183480166 0.555538775432324 0.051543565443898556 0.5458495386257445 0.2628646446756247 0.7846283940903858 0.5461879047090208 0.20375430444690784 -0.20496649227249275 0.14434732338346587 0.37707051941473496 0.246528438174891 0.3669081944969901 0.45324743906024534 0.4665240273303486 0.26740734197052013 -0.13806763879343348 0.13402205214024615 0.2996726859574752 -0.019849924813486252 0.39250927280504805 
is 0.4131182188030106 -0.061852616004087896 -0.013550127725899995 0.24177704587856555 0.025359726735244274 0.7733643687135472 0.3013945052012718 -0.21420616214305271 0.6768071894954361 0.6080516100813547 0.40546318241556234 0.5447141057483202 0.3826547474966632 0.24439212317290004 0.6792271905643561 0.0275698094466468 0.4263082002360862 -0.34168274936247456 0.5215482440615823 0.2967037971962364 0.13331612711832827 0.17643946243432135 -0.04196725255891574 -0.1320548475921603 0.37209688040193223 0.587113573385359 -0.04463376257513262 -0.1515458647081554 0.3539314822550884 -0.03607978700877276 0.20612297118578005 0.24074794752348064 0.4611145438502485 0.17618698324245197 0.18275583923766858 0.23977206716347788 -0.18948628931600592 0.44346684918263146 0.09664566289539633 0.49174910239429637 -0.19753745905390327 0.6556833616708674 0.2795852864361291 -0.11396424732290446 0.5035694900633387 0.2234528877406118 0.2520686665971326 0.3732478427564234 0.21756390592732983 0.34280108678044113 0.13748663204235165 0.4395551610983631 0.3910146956572307 0.08649231334774055 0.42903091152375494 -0.16975063744618535 0.27509313168866617 -0.11806174840303382 -0.15613515847486817 -0.01887654562821614 0.07098995766830637 0.17210208561723742 0.19465194635368724 0.252550022162551 0.5451533479139803 0.3120172459538576 0.010701039271745462 -0.08393915249666671 0.5205426675869316 -0.15817804561596194 0.3304770535420115 0.47429468950174175 0.0521874682160138 0.6008483116162985 0.39872598390860253 0.6751213883495812 -0.002347001814415051 0.49533080812569474 0.1206184783856618 -0.21726900518995523 -0.1272812965469146 0.049034271042681384 0.46682120248688397 0.08685423495212723 0.2509972098808277 0.42053804518715676 0.2455950838905022 -0.20047539386063024 0.09444745110888611 0.39031506004236294 0.12534480345835894 0.12966268281963764 -0.03665816556181894 -0.29095892665662204 0.7420318892794777 -0.3250582728345129 0.6077059368959471 0.2810043848912955 0.17755869916064995 0.6062874807092459 
and 0.6085685027286811 0.12111779942912122 -0.04064319998590222 0.4481300932480964 0.05327835324557206 0.486368548349223 0.41416857469142376 -0.05251106457464908 0.11487336715737062 0.12184770862268561 0.1748635379391279 0.6192512107466097 0.23388048491523014 0.5101641807942916 0.15900833516458085 0.292290422099769 0.27587845086163765 -0.08511960824524337 -0.143593445087813 0.027173047650241432 0.011583886716957682 0.615082923504225 -0.03324310746339186 0.3189710453759931 0.4118049748251576 0.32855002517900017 0.3372207554469588 -0.08742668499255937 -0.0113666638033755 0.23052215549463306 -0.1908211727878285 0.07898250744735642 -0.03996436221827774 0.3510093760787297 -0.00017215713133765563 0.3508932911331195 -0.11170971986254793 0.32012159506539994 0.29199489199933965 0.5709767794555033 0.06556179721006201 0.01308591209549607 0.03394684740247649 -0.06582384967416124 0.14302786005738607 0.4218598277527799 0.13686852835903074 -0.02130335172198957 0.36180613920369165 0.649048707177688 0.38602609776765107 0.29094787228243696 0.3584424701599844 0.2721643868478232 0.22248908667313344 0.11368312396596308 0.09148226686674392 -0.10862404751102371 0.47650380724135016 -0.17436884913811954 0.174927569629009 0.7172581154604871 0.3714611590539805 0.46218511583853544 0.43495995095372625 0.39718831669374566 0.0977355342863272 -0.17487903523821813 0.24503782078523959 0.19935522452847465 0.04975569414975633 0.598345166749758 0.5864725318709626 0.20057758451571323 0.553961900523941 0.6877476586643356 -0.22313415296130737 0.013510050330905786 -0.14237645082701972 -0.20863320020844053 -0.32839642181167217 0.33353563395381336 0.14012399342341833 0.03908709420580231 0.7003187697476709 0.4743839664237345 0.32388389221348174 0.1635745378063714 0.17364015212295666 -0.03830206049813125 0.012926296141466169 0.6396554121472542 0.45875033042834906 0.5333376596720683 0.7915725100814697 -0.26695624785309097 0.17153043590183223 0.5007154430951585 -0.069448082855856 0.43804305330996485 
you 0.5758592039166012 0.5529324585383557 0.011529956677257052 0.4354914172103036 0.10539155285492603 0.7944930616726572 0.4393364296174761 0.5920373571105003 0.32426648365936067 0.26584341345894025 0.46278222085674714 -0.22180195750292359 0.6472877018793468 -0.10639795713185612 0.46907925294758657 0.5891255228774953 0.09476870962384575 -0.05414578436399702 -0.1937889313923246 0.07889030469480371 -0.21343559037916782 0.18450854642040482 0.1328736198649631 -0.07102733399414274 0.6662364456367713 -0.07648833736054947 0.43318379814403085 0.569618914434457 -0.3090930682770544 0.36491420497119764 0.451742532819003 0.25651106807672447 0.3663959473808515 -0.18438796836234989 0.3691221072706414 0.657966734227515 0.1997071795667802 0.34828518760009725 0.04543321287452745 0.22631195709053264 0.29357744975203803 0.2304483805185409 0.4307810967756735 0.11257315622136448 -0.013761320125806767 -0.01816284296149546 0.7657977284412217 0.45589030399269875 0.19636845734946104 0.6645123880842584 0.4925089865214305 0.5221056477205391 0.052205022460452416 0.2280762577969329 -0.2091018678075073 -0.2101553916681279 0.2887058064110082 0.08929581478009785 0.1641050100038126 0.4066370447362897 0.1668270510171474 0.45601822158681043 -0.11746036177377972 0.35902512005011605 0.532167024162326 -0.030201257901013603 -0.1691652634337452 -0.05661453755856992 -0.005571637779227117 0.025761702954339313 0.0743867661214706 0.15972421579249543 0.6711637574712297 0.3230762240269862 0.024691193072492852 0.20178081077884658 0.20772080989167238 -0.04951293999816908 0.1426286688199571 -0.31644483461322703 0.3185755833109701 0.046594328407890406 0.6041974564931294 0.4558003142867907 0.2163855808976378 0.35861733919444144 0.5944123717029288 0.3216811000965351 -0.23279963011887606 0.19708219272271527 0.14001371323881912 0.3915010017054576 -0.18842300995832287 0.39802507071552495 0.24151420157618025 0.3590675715833398 0.5233865064752499 0.32377638706032874 0.2286587289027348 -0.1796799555058777 
of 0.30326197985270986 0.2774811363698075 0.24343446428242757 0.3449726130754591 0.22337976663813838 0.46191717742949095 0.44811152716531777 0.3920011815048856 0.4247968422056598 0.2925609667238982 0.36934204220568256 0.5575896183347543 0.18934367944303304 -0.028860424088360818 0.03450351013500332 0.5559858802603673 -0.03369583308940573 0.04775539291356817 -0.09068512528003905 0.26231428190719724 -0.2914260471556802 0.0069369219600126705 0.6464684519747291 0.40831242773352805 0.5354796368418413 0.42957883262011437 0.1907411509205171 0.21940276972756248 -0.16220296190183447 0.3752909646003312 -0.014582058331265826 0.6242432822426229 -0.06885945282978688 0.31357722975587565 0.16590953629543503 0.0567724765443757 -0.05051111167268524 0.05928426137410533 -0.07277991721374896 -0.17331345986758634 -0.1900471490780007 0.33367761850588123 -0.07549348447920963 0.015132156942935024 0.15816515687833238 -0.21185206248360425 0.5539476278622504 0.263855304094845 0.5524597415110161 0.58140668371123 0.2532930569935729 0.11136559500502637 0.025488035324668097 0.2595237053380554 0.41451506722672254 -0.1975772703001457 0.07557750895683384 -0.07986900230056967 0.1026426343742356 0.1860382404547173 0.6397782393013012 0.8499803910977307 0.14155382950062623 0.5518840390007913 0.12245849136669747 0.21774726821269078 0.009305003322857 0.18134842268295107 0.2900398963277658 0.29468911350023236 0.15736371547608785 0.3989631775332602 0.24116115965543344 0.3010656472403488 0.29899464121998287 -0.00035857358729926195 -0.2142167317610633 0.2624917432583054 0.2709588723221119 -0.39915044802701366 0.0017167863751187565 -0.19552234765977836 0.5253774006703851 0.45310481661357666 0.18463119589543547 0.00047701310806564745 0.4675798059171545 0.358807083668103 0.04525980284812711 0.3451275801843995 0.18694761119139697 0.5343360679939617 0.17006529172861684 0.023098658529497836 -0.022356519916365728 0.32473133946957544 -0.16934675951495579 0.3104699672037876 0.4008555394762127 0.17055153834859266 
I 0.40162021155125915 0.1654134810411596 -0.11500863218906873 0.09153542468910471 0.0070021682933558834 -0.07623114914961224 -0.06060437174653266 0.18990633668729873 0.7137608537292174 0.037627847846824145 -0.1089039907255833 0.2046405824029166 0.23530293602684876 0.48783051739988526 0.05092797623100102 -0.06496808308332566 0.4814727644617432 0.1974433035040143 0.3992363862742769 -0.06601316587723402 -0.0348746962284185 0.28259426076840843 0.10166364835614086 -0.1177082878265228 0.4974906628437235 0.04557339119479958 0.10290243197056753 0.18085828869091095 0.03453278365539074 0.14859859338624712 0.08908225848873555 0.1799121804264885 0.3398564389767216 0.20008394053216405 0.17445599125187303 0.3842406972213082 -0.2148709767606597 0.5211914531096725 0.44423376920585944 0.19554158859602097 0.4434224759941 0.15315795697313347 0.21858838216929427 0.1832448980681422 0.6145783353172554 0.1334441790562396 0.14589258761565554 0.21856228696800806 0.10191041166423222 0.03218584615962803 -0.14083987916990937 0.38184286509244836 0.1797608570286962 -0.1409112602511487 0.5179415867823629 -0.03201001677605424 -0.0006225093983233494 0.11959442940861205 0.7922768720817547 0.15794905655569147 0.5257956330595572 0.6583885786576826 0.24788438245237882 0.592314226391061 0.15945627949611704 0.5880471559166718 0.03863582139312991 0.18473113414785036 0.3967509254828438 0.012314732047703095 0.007257868407278653 0.04601108656564594 0.23348469072015463 0.10716268947864303 0.6383935277244497 0.6108080003167179 0.568011688323835 -0.21153537913898648 0.37637945531150735 0.07811326684051534 0.2517879375672843 0.08930923726614226 0.6085828846205453 0.24043383901608334 0.6952364415608856 -0.18291426989719137 0.28032830918546603 -0.20377886363955702 -0.28539102342024264 0.47974472719196937 0.40739588921844244 0.39070528430522466 0.2585949977518877 0.3276538667593828 0.13449206320386442 0.033363215002835164 0.36694946125820777 0.16698499634808797 0.3038936622870278 0.10644756439355552 
in 0.6971107103778573 -0.12754242122618498 0.19743994498821288 0.3949435945328512 0.24827255459697678 -0.08902531684718853 0.14236414112328732 -0.192196086159973 0.5431913562212 0.3827636849801758 0.5428697239664585 0.46893231919444645 0.4517693748394675 0.03399517147773752 0.12054784195500012 0.0303471424876073 -0.0068552062304410005 -0.056295157672842155 0.07106391423910345 0.10926393873618279 0.057449741884073514 0.4163783133394584 0.3909949648227641 0.1937814250401834 0.3727156883122656 0.13178614467593788 0.24459714794458903 -0.00040251128503385365 -0.12513719065381634 0.36484020179029614 0.047441026056305756 0.7979387950125663 -0.044851953585983116 0.005394921458583062 0.24366319876470102 0.5634276902862615 -0.15147219980781595 0.24375698541718852 0.48835811003289264 0.30241416233496954 0.25320575531219097 -0.006802319126405478 0.7174276292808466 -0.05297902550009337 -0.18704312751671642 -0.24572167053271918 0.061059094868346604 0.08113280710981177 0.514181968714191 -0.21214883723572317 0.41758986746773563 0.07317079935029482 -0.01567823273097541 -0.19647504114541162 0.154888102847775 0.3669309475158641 0.259545048183037 0.5301931467023164 0.6589957006947827 -0.12632353129884122 0.14479768143189156 0.6612346079924388 0.008413207789840914 0.40251350704191335 0.36607300527370285 0.4767048829639288 -0.04640222597415238 0.3618894538155391 0.4612264170663282 0.5477202828892954 0.3364857634533838 0.42156960918206543 -0.06556174452166759 -0.05606776049410162 -0.010584641655322344 0.6775324838067767 0.379496257461544 0.3368072196581623 0.20495908440724087 0.08148680585270145 -0.05557951655018309 0.006069854739416906 0.39273769809166353 0.17487340441013788 0.16430068452841903 0.49288762240298456 0.005349362512453382 0.298164552217226 0.3525579372602337 0.5984286992504199 0.21412906489063913 0.3064087473900715 -0.15933954857657798 -0.3587358518578121 0.09219392130901276 0.311814207368363 0.3982151023698929 -0.012146074619464523 0.46168642094225204 0.1853635743771678 
it 0.02865521894020367 0.2269148550624076 -0.192603728055273 0.15098773153288417 0.6030664817964322 0.7311250883038671 0.3683955088233803 0.6078385996814019 0.22104589266768812 -0.16430057924757194 0.11687658861925584 -0.013003552910002639 0.5009930568306882 -0.11614504517549985 -0.015244250741334434 0.3416835100010024 0.21920951803689123 -0.21491484108327974 0.2382842509408229 -0.49403926842606344 0.04255697238622319 0.501251913941934 0.17568412313837983 0.5036303856623479 0.4174801487013127 0.3377821368990314 0.005118654314178192 0.09463894129914614 -0.08338116068529124 0.5207715452655263 -0.18020970319003282 0.5435635320352521 -0.16090287438727402 0.17143547176449195 0.4551051167481214 0.29710018066601374 0.15779898989461286 0.3463100546275382 0.2675301721577128 0.07533887809068196 0.338803831655815 0.3654797425702495 0.5497352060924697 0.03682494099693843 0.5820328821959643 0.38216671290353266 0.236145721396569 0.4112726613509506 0.4222009590585638 0.11790902895388988 -0.032325273541732445 0.2761984097468265 0.5591309941393217 0.1745069005522967 0.37212609641901095 0.1463328768158546 -0.25257474807155855 -0.10943066981260799 0.2956576015414433 -0.048698868665267216 0.13674086305203523 0.374648515220692 -0.059597172222384386 -0.1345978968465954 0.49308464674905444 0.04591578983703824 0.3201259675069107 0.07724781908740204 0.5437777564527535 0.5128419550493455 -0.10819714139680459 0.2689760691408856 -0.0893478578452346 0.4753877192141207 -0.021176613669763256 0.5314419852424529 0.6330595955638212 -0.047510025784080555 0.30012639799700785 -0.3611174996433435 0.036166970283271316 0.5999471589075861 0.44300900159284207 -0.19455849575714165 0.4555616631321567 -0.13778491815882637 0.09172556043996147 0.010504856702275377 0.4055634712033129 0.6189987852634556 -0.013098462652108057 0.18326795136771154 -0.22904737082492913 0.33145940684104047 0.050559152944253845 -0.14249093296294618 0.5907039132300821 0.12063530431016241 0.06007972592090575 0.310348171474425 
that 0.5758991075548078 0.6069512778501204 0.1816499569374727 -0.01142079822825331 0.2807336572805956 0.5970001390993596 0.20986159425533488 0.1900047629856368 0.24789912741715342 0.09358487924840748 0.4640197461350113 0.3849023439231339 0.46898309452001025 -0.07087954052970423 0.16149499697234887 0.4028597589256694 0.24644422472738617 -0.1620048794140246 0.11351130196904685 0.03722250250051133 -0.22757974038739673 0.42497272155642607 0.5703250430839308 0.4524416568993725 0.18772578718904784 -0.01951171919658525 0.050004922916699904 -0.07038535100513221 0.19728690242733124 0.02906900531835391 0.4118415330385455 0.6656183564959866 0.5102892471317672 0.39000689517964787 0.3184939677756769 0.09576095926261018 0.1258054050008407 0.05427458224640847 0.10275051584571473 0.5808515919174617 0.5047255627135934 -0.03732449292013614 0.18892716536990153 -0.021188926892814753 0.4856631560041291 0.557893086538091 0.37409731509946975 0.1422214401875719 0.1853897788305967 -0.15089610583912766 -0.08025516875222594 0.6631883791882139 0.14020716954258816 0.09794163248056535 -0.11279401754569356 0.46219038634884996 -0.03426499698751093 0.3705781739175541 0.13721085400618577 -0.13593145572902005 0.6020529332568333 0.10862546141791246 0.3036989529797789 0.4482239393382775 0.4289761370203485 0.22928547364358062 0.28476773061204974 0.2210136444828427 0.18246937158161372 -0.039273395249229515 0.07891614724208681 0.22313132190954346 0.09855981355186288 -0.060697806574706505 -0.12705449580414285 0.6609296587080721 0.5322382885772899 0.10734190973440168 -0.19132804725603025 -0.44042940920898743 0.5388512371841396 0.42588718709726114 0.0010162666649889754 0.4491041905111904 0.7559366155844118 0.275779617329149 0.1351661016024657 -0.20329544652855344 0.29104239065473025 0.2874573540237466 -0.10019403057501675 0.13583074388423336 -0.12414384091675723 0.40084665407880454 -0.016872940242581985 0.06613181331190388 -0.14242914462854545 0.1235003956832328 0.35107407417446884 0.02605020706118284 

 0.47543802232183296 -0.003694477975004699 0.11697059344502467 0.46179229944220646 0.5330886286085248 0.05622747597146178 -0.1232370781515432 0.3586503830967496 0.0332315989825122 0.4192313265025867 0.12388287562317289 0.04552160798086029 0.5039526686413094 0.2751140652235258 0.4229490636177109 0.2530033466675489 -0.047555715354924886 0.18738943397456104 -0.24024488764579216 0.01745503787846828 0.1591787100206541 -0.010264792867698276 0.4672561255344938 0.25278948242959254 0.29510607304442515 0.25426251187130233 -0.19274509166537723 0.10828930100430029 -0.24702550315219085 0.35884927090418167 0.37312876462092165 0.6857968429658964 -0.15399643100326263 -0.12626624500183442 0.3065271065571511 0.33800704614478255 -0.163927011374544 0.5449892524929826 0.088709554033313 0.175186689065554 0.4010130482281275 0.2229795278283216 0.5776488855616992 0.019701228650993427 -0.09111166803722563 0.12208801714757224 0.47655013254478495 0.04350061367170887 0.17907534770288072 0.07085607301204919 0.2550877629828555 0.3696882540188531 0.011150107840972177 -0.09605727748355876 0.1818794250669739 -0.15706648216191746 -0.07425205478391174 0.36733266874814885 0.004757495460547594 0.36461149756607536 0.5880789537665695 0.42680364497805034 -0.22499574759851518 -0.0749571447900323 -0.16986593695803848 0.14249556034947622 -0.13159770139904048 -0.012383598128878539 0.48700929834704365 -0.0838588657834436 0.0443977426523823 -0.04700298562755158 0.39787248670435044 0.40267365472005406 0.500488159333108 0.7521073724654919 -0.0018654827025180174 -0.40125635478351923 -0.0751132098893124 0.1432874191421438 0.15842586950607573 0.3604209340023608 0.25190701357330303 0.305973140142901 0.6307389076415306 0.47962799220869023 -0.2952767707268697 0.4101344280280761 -0.22938998302018532 0.23646683353515596 0.1882848918429754 0.5379028604343703 0.0033742848675149986 0.05807592187884895 0.0031046960678228286 0.5566507748462575 0.27999396382773195 0.0010810781234924021 0.6070141143720222 -0.021446765044256345 
( 0.18728455295544907 0.5859717511929484 0.46205586267989707 0.46679672979250997 0.24994392424927733 0.11026044456197294 0.39573565811376776 0.22476472955581567 -0.12315109711656241 0.3632435748485476 0.050213143229888166 0.03278129988965371 0.5211631205248971 -0.26357352261807854 -0.1946353992896514 0.06004014279052283 0.5643600631535268 0.11817154201164254 0.19045865923469532 0.15018905535192942 0.5099553496348769 0.5084960377644285 0.47946280869888136 0.5776142606643238 0.10669607255595454 -0.07191337510032673 -0.3022465377197704 0.018689569877471703 0.3500165299116237 -0.07407364743761002 -0.049758832426872644 0.09101984564623432 -0.2288939930379503 0.05698048721375097 -0.2801305220087305 0.5432053626145561 0.3447680512805708 0.11004339064457869 -0.011204219478029149 0.5508873239879899 0.20161904046428736 0.5431932988217634 0.1820810786281417 0.2268636187196483 -0.23560717465515896 0.17144706380657834 0.5519360777836688 -0.05222836680766468 0.527523027463161 -0.20998100582397602 0.10728670746976221 0.23978138989767372 0.31577276666628207 0.19089572125182697 -0.0028358282588217105 0.3793168710759017 0.28029098765116695 0.5528244829352874 0.6189055437478415 0.46500667007748037 0.46881187513697475 0.3721123669204037 -0.5272340927588445 -0.271063176077472 -0.07812563064518208 -0.04846055403702439 -0.09337210105772135 0.5188252579570116 -0.04456784414384787 0.013597290498317066 -0.09750447217516876 -0.03159724201096103 0.0753309919721912 0.047274256326635004 0.13719305762633927 0.628473871103505 0.025872432675431108 -0.05709234629051482 0.13849284004723153 0.28002115383891923 0.22592869980195762 -0.1367088041148886 -0.04876172080923418 -0.09112602165898939 0.24420965669710676 -0.08425898304248906 -0.18296720032889335 -0.024364103376250962 0.25384621932697693 -0.1061201182924699 0.639855653831974 0.0485597913787693 -0.11580912302805109 -0.20187101524455825 -0.23661677349670784 0.031243038998392786 0.511958611145778 -0.03535638920416862 0.27552848615943615 0.42373000059424804 
for 0.4165733241097885 0.291077485732995 0.4981727248679098 0.37988386128361334 0.22649318871121174 0.05220005798156286 0.019302132085761477 0.2871260832416816 0.5800397884686608 -0.08087617776734977 0.26004329470427145 0.47735384053379304 0.3966543214278679 -0.09396037181919205 0.2489815128511992 -0.19434079429873827 0.05043482479591816 -0.21161272216976984 0.2814661662734991 -0.369211133609723 -0.35917648485992343 0.039284779137776976 0.2185969233918404 0.4881704603604814 0.44233992082752693 0.4790246693658562 0.21787312297014727 0.41675119372899866 0.3550586078865976 0.4652665203852193 -0.08981230882842735 -0.06748707759728362 -0.04462522094845266 -0.18907910428328975 -0.06495727609725005 -0.22112457304638283 -0.37987177527335136 0.4827241051086885 0.5765318416178663 0.32815302418838316 0.08167992402040379 0.6366380994295286 0.03149668978912067 0.479231289802214 -0.12705993509130314 0.49502880658477755 0.5651049349708345 0.008504524160599667 0.493653920494546 -0.015115902052858116 -0.038189644483706056 0.4997383826782731 0.13539094645762717 -0.03282868505446391 0.008718772191457624 0.13185319195823933 0.45285391831456684 0.4744812655447265 0.3541893411777388 -0.3117284162888857 0.6888530398582386 0.4511100780037372 0.3152538554665553 0.38973569184431583 -0.22638996554984922 0.10340894305082621 -0.19228430769147478 0.4432824088628563 0.1663387934394877 0.4880642234396285 0.26969659110762245 0.36528384780815887 -0.15496864542557362 0.14791645503581585 0.3027599561311525 0.5941562149514388 -0.23381227334601296 0.46446988053356736 0.2291751871454811 0.24000625640778153 -0.1466318170442506 0.21494148643442323 -0.10001460108607857 0.05371088494124126 0.5960691049639286 -0.06681166079515735 0.18451318684433896 0.5621343230489921 0.2732447344178427 0.02364253072584866 -0.0739841061737683 0.06983558864306942 -0.27106452225139216 -0.34230258086259485 0.4675955126451791 0.10138362620888824 0.024298184418451624 0.5032224346045716 0.2295677011488575 0.5623844382578082 
) 0.3267245337198324 0.5154396276710181 -0.15824775863987223 0.4450273858786909 0.24477191635410922 -0.041694969087197546 0.5037277929091009 -0.14840738389306185 -0.14685231024737316 -0.1304630421415702 0.04918376888470002 -0.02106103751686701 0.2889962873372275 -0.1372128243063489 0.36049695965149264 -0.13437768061415264 0.29206276858711877 0.2370995906451808 0.039799517303461554 0.12648323462777455 0.33910916235051 0.031148255034487607 0.08586845638855507 0.19833588404246763 0.5070572850082207 -0.22199136261646124 0.4034989636102104 0.41554786368716073 0.0843922061403138 0.17433188772976893 -0.22415934240726038 0.4030601936787613 0.5636983568668533 -0.1882948909544531 -0.16689172152816573 0.5431666776404888 0.006526315109547176 0.7355662116212898 0.44898229319433725 -0.04241322662886261 -0.19758446787400943 0.09788218544221873 -0.04014433212534661 -0.17967712372234154 0.04565691686261063 -0.2336822002260657 0.2330279540240384 0.49539140171422025 0.5296557061416212 0.06189701376758583 0.23948662685244906 0.3926620615478738 0.4769665171504346 -0.17508104516957249 0.029621009047535236 0.11992226477142152 -0.04402960653844907 0.5552727516756424 0.48188310935623024 0.2637167495360778 0.5742663908425641 0.6350511226473037 -0.4068251568508597 -0.09736039450781239 0.41151869485541104 -0.23760538790807206 0.07997284393623912 0.24225572180771648 0.19694191960990798 0.014093178821020602 0.11609473673472395 -0.21207425667703642 0.41236296939324624 0.2724221718384111 0.020413025831751423 0.3713293892679829 0.1750482990460723 0.4709938300471921 -0.08090718862096197 0.14131831058549404 0.2297374394868593 0.4437780812261654 0.17749264346427432 0.21586757795182165 0.45627995659131276 -0.10057111991483966 -0.24918207620221217 0.11081755916898076 -0.02802520650990305 0.29024013953610356 -0.011100248882980047 0.21080485806593152 0.28690160692745376 -0.10254102505369025 0.4986014025548496 0.4507013365999207 0.1890712128766819 0.3017339668774082 -0.05918198466303166 0.13576910716056942 
- 0.22745338466583476 -0.0694315737408534 0.4991410285907845 0.32907295070635745 0.2520924774845363 0.5420314730149579 0.16057096107827432 0.32010072648640975 -0.01726367359012977 -0.2734679501767251 0.12190757215371498 0.29663380862355426 -0.06788110950380179 -0.02796595731622212 0.002171343691563351 -0.04380591319827451 0.4021975036822442 -0.00375860526922047 0.01984372980169873 -0.13947430942033143 0.49048926683703453 -0.08796707614594439 0.42758786679136884 0.5161462853915921 -0.06011784659432146 -0.17592559918954653 0.08151696127525876 -0.08185633135472369 -0.06605088939945708 0.14172214031738253 0.06128973330415309 0.27227572400330213 0.40711715994273123 -0.0889726805642385 -0.31843324551672075 0.44510502920442135 0.25288747431215364 0.23804685254044314 -0.3242744074694225 -0.34757330624590776 0.12773836451588552 -0.13749176673092595 0.34533216866014893 0.17150695670845914 0.4650604204279202 0.013782592468648137 0.23058357664312745 0.22659786140869775 0.31740248687524736 -0.10364901023944939 0.2281564152477191 0.2616847273814205 0.40055945978148816 -0.07307205283608481 0.08520567990025464 0.060458937785237636 -0.22754770813528982 0.0070215559804458726 -0.06144491880192558 0.5368632897865244 0.34744694365973927 -0.21182089841621024 -0.2816611108901688 0.2634937930286481 0.39552154796407196 0.015379447966349944 -0.18461855704526295 0.28560722716462417 0.3323525906332072 0.33289758154565924 0.14697817115912853 0.3616357155950562 -0.02491948579394622 0.10039803868874861 0.07149768045442681 0.40868128074416904 0.34231352941189186 0.48702188525382906 0.041946883820067386 0.23799857458755225 0.21314605068965242 0.09301381530192837 -0.015343483908767946 0.1468052089163406 0.6193136370502558 0.07941275876283554 -0.03186139918138016 0.5627866968342419 -0.22295109206356487 0.5857028806844626 0.5323513803202069 0.650127713626211 -0.11081157357039965 -0.23994879605757338 0.21799380779011637 0.08461907961614483 0.08255313362523584 0.18592782451528483 -0.04037505080149311 -0.06970202653663445 
be 0.0908887172502656 0.21337964782825794 0.22876931528434957 -0.054698219083314584 -0.2329852143141468 0.7286314664624576 -0.16851385492206059 0.439062738887368 -0.05671227626836352 0.1839714316204961 0.5024997848167568 0.2865729170261122 0.302074760499432 -0.10296506670397927 0.23841492932994604 0.30944843033946845 0.2603910298650087 0.1831505804912625 0.07796235651643697 0.09677397645057995 -0.11561639619502448 -0.22853079686385794 0.1089273628096903 0.27206345831935824 0.03304646590411323 -0.2585485028561903 0.05279957182148193 -0.1901806508198522 -0.24819593688885944 -0.12192306086568003 0.39163396733081585 -0.07144767454545546 0.08012396420695095 0.3198251671709961 0.16946597279921158 -0.2489551054218436 -0.21844205526153912 -0.20800136597380386 0.6540854472422738 -0.15828830184828668 -0.11229487809686936 -0.1713968011748769 0.3660723049831204 0.2918275741689915 0.5401144104324026 -0.3169416923317674 -0.215235780862666 0.5671190663055956 -0.13987633528561652 0.2335791125950242 0.30828057856923496 0.05943322970813111 0.28862866530697434 -0.2403257675450446 0.17835428873998121 0.4084103020315818 0.36193743049798577 0.3215173481454193 0.4649970532612239 0.18312907383956056 0.4298698543894756 -0.1483292658684494 -0.03589651045471342 0.07736807393284115 0.2855181137812385 0.505622210120315 0.5003330383324386 0.4768930784614726 0.44464894818719075 -0.0762541854128753 0.09698810617838298 0.45176763288064126 0.020304291635530252 0.2318216443826195 0.2804526773749728 0.19796444324041795 0.15814609677299546 -0.26096395840884096 0.270112766209713 0.17826194027590778 0.3830251079278216 0.390126414541065 0.10794792261707517 0.15317416976223058 -0.01333427255005273 0.09868890604671973 -0.07622766265963836 0.30864708640111654 -0.4273735954740689 0.39811874759912325 0.14770802167195485 0.457719926309273 0.5975707084087822 0.24699868637120298 0.010041819586180755 -0.23625289325538354 0.5019174281235688 0.4258209306571479 -0.010714190721177649 0.13551728119783288 
.]
 0.5637340181758655 0.09656173786948322 0.4285008053770865 0.4620792904192506 0.4840974876304524 0.17799987395049044 0.499918198559005 0.03220086695330129 0.04677887136672092 0.5704209396909817 0.3746118848519095 0.4173545013958966 0.16810903972371077 -0.2856955214293023 0.5490552957876693 0.3812635648909647 0.22085275940924481 0.07510533435888404 -0.15185687489778982 -0.3427618923893646 0.3736436684526756 0.030929976881857654 -0.21673626483207134 0.24368973670195393 0.518582190236526 -0.2502593463650686 -0.14449086696718264 -0.12591283423550795 0.14386906409169137 -0.11887457029992719 0.4735658108043393 0.5720327662720877 0.40687358371992044 0.06668916676019085 0.05974936694030277 0.44725603227022726 -0.1845769425072506 0.5822957212166904 0.11989054987335475 0.19430115461349207 -0.1476865884446794 0.1545858201573965 -0.3443564058821038 0.3417315583748922 -0.2432893638610266 0.3071610659418009 -0.3138196893568334 0.519403589157147 -0.19806013802861416 0.08795121660397968 0.32024150612612584 0.09126572417926085 0.44492714788580134 0.190170490068949 0.3482779033350027 -0.3180351567881381 0.0057692781912494365 0.28191226954741294 -0.17730646436106157 0.11560345455235194 -0.22437511638569152 0.5052590843806256 0.2814011084817827 0.4674652022720682 0.091670087152544 0.16307863207272721 0.2629222204158971 0.4132699793338205 0.17959163308299173 0.24230006858533124 -0.049857125914594916 0.37320867982712774 0.4338457191551464 0.0030765181652774847 0.34020068136435466 -0.028654021870905027 -0.1765325501517636 0.24997471268102567 0.08463557822612414 0.3117116683630756 0.3442599935665367 -0.16594939931390773 0.04597889481902325 0.169132936064762 0.16503827594701667 -0.33585624932514496 -0.1260235815679089 -0.03224761711028825 -0.2042707328371789 -0.22063704854769436 0.3336517734322219 0.43074707177709215 0.2926850250712332 0.4140767027160242 -0.12773339771513847 0.426109170519568 -0.0739527875870755 0.47818803624651934 0.36316363778587524 -0.11941097883856572 
this 0.41217043330968617 0.4914799841005214 0.23710777018018644 0.1257336040448373 0.48802987325611674 -0.08219340413871165 -0.045320479395549194 -0.27363516208155914 -0.17646846276933412 0.4062390115371077 -0.3325558593596535 0.3878377805595642 0.32837400989203175 0.3772665469538491 0.09897787787369894 -0.23608885434311586 0.48102974251699543 -0.23275794562358515 0.27981258941261256 0.2708034662416826 -0.16066873842933638 0.2811189451830995 -0.15906475919699806 -0.09262790687479301 -0.04207730943590693 0.5140190407429246 -0.07774525827690787 0.3004775907037867 -0.059635552322330386 0.5213387213895077 -0.11641558640405142 0.4293244252831017 -0.09690727727026996 -0.1707005870851352 0.25137252081251377 -0.24664131835605363 -0.18939826174991603 0.36177590367027485 0.6328600625014503 0.5757354453430181 0.12830944558095453 0.029472197631592274 0.11768382334912732 0.2622023109153569 0.056345504326278745 0.15549551659215813 0.09641932459932975 0.3827146204184071 -0.2270164789383917 -0.10446022734909255 0.11895059545918968 0.46653094510306475 0.04278053649075443 0.2686063160316533 0.5163475506550464 -0.2566627944535855 0.07566287133616063 -0.1341157892671636 0.11179525321326361 0.26616420715149003 0.09694588418984369 0.6502820622675782 0.09302816630249776 0.08362694935355114 0.3056617343552259 0.2874504615972893 0.5322148455082949 -0.0736411745300076 0.36922750046859387 0.5105387285946352 0.30470598303264346 -0.0839486101609349 0.37329570445719584 0.4153443106857514 -0.09415479716906405 0.3892978215930724 0.3230989833274011 -0.20029012547891312 -0.05156246300946706 0.1768804407592079 -0.04908896595099927 0.4989304911840463 -0.09416277819273706 0.19705701663320097 0.0327603148677493 -0.1884277449133941 0.17042645544344354 0.45951345928881193 0.4091385452302802 0.36368111233150274 0.11144786927998672 0.34691071357530945 -0.2668240894048653 -0.08694439582288734 -0.1802034798963415 -0.23653242018246898 0.4471119451177246 0.3001122008483301 0.3332969698714452 0.3623014500224534 
with 0.07443602412286753 0.3438037073100255 -0.19245026294232936 0.12678930109311165 -0.1594934808540812 0.4644957846541642 -0.16856674054633153 -0.04145891239242113 0.3644890788447419 0.1219749215012197 0.26025033398408287 -0.33481505024356506 0.40489265682096776 0.20106836289694816 0.4321374329095851 -0.2467381807278088 -0.1613531299880732 0.2634431337093746 0.31906797048293434 -0.39539369951834613 0.09819494785583828 -0.0811065996082 -0.26983207541885434 0.02084834599994919 0.4210886458130759 0.4742154334750605 0.11743185786197274 0.36076519381648736 0.14584323059626747 0.35040054349546795 -0.21785348044016883 0.48760180508074047 0.055368659089952046 -0.26799492477500253 -0.26758187552336815 -0.2338567523745115 -0.06019093588460106 0.10319122265886572 -0.07437677175547851 0.1564568165302841 0.08305971328643298 0.4738415722266124 0.5835878982274607 0.1540300430154736 0.19020398767202512 0.031961980451235515 -0.2793548753614365 0.4959122211958762 -0.06929405987556352 0.3459502766774498 -0.30400182375460677 0.24506457006263782 0.18638247373016428 0.21987606771994733 0.04284936092171572 0.21059411985891102 0.2769427173429041 -0.31362152037521007 -0.17568128520196738 0.4323906090478463 -0.16335664956962284 0.1552964835757325 -0.41707739316682774 -0.34001718418601545 0.34023866803922415 0.3234231159048658 -0.1358330981575471 -0.20104507791283358 0.35893851987189773 0.587712938489537 0.28495912390033373 0.26669402713421647 -0.2817003613032339 -0.07844245800893326 -0.07904976080149795 0.34740656347328097 0.38846278077034385 0.33275098564746264 0.5739924787269418 0.38274681963291873 -0.07940997663332974 0.16520409186614354 0.34106326002142556 -0.26258858643036165 0.07854554519834087 0.49794061044784027 0.18089533186629825 0.4073496257803942 0.3927599616613532 0.009154353038556993 -0.11405692057893506 0.4581421437650067 -0.15549156390250168 0.05542686264412518 0.40206104533931664 0.36143031672667425 0.14988403672631823 -0.020834171035350173 0.4076050226343708 0.5490489492244639 
are 0.2005265016431905 -0.03983942013667272 0.4362304653135654 0.00667386400949913 -0.08383447344806565 0.2794275690310768 0.14583340567569827 0.24831980002107262 0.2584766812500441 -0.07410187406531847 0.4259980185776624 0.2650431558552405 -0.12366242475818971 0.5075315088702405 -0.209484341299862 0.3469375045351078 -0.027655853302271056 0.2593454052360763 0.2231167626303368 -0.18998574215652073 -0.24301246053564227 -0.19958717006306154 0.6047164792170125 0.18086853193029406 -0.09429005693481421 0.40411067362376046 0.2169683757706209 0.16876858999882877 -0.06466610381362739 -0.1484159245413395 0.22302064727072796 0.3769693658833163 0.022968173189268123 -0.2666195774949389 0.006600388373121337 -0.15876120030509025 -0.3593945061676945 0.40503348876632755 0.28833028733615107 0.11151886168686424 0.2979917731821604 -0.05085779562909844 0.3024824243616674 0.1710067011215148 0.4628713183609853 0.013386138114835343 0.5329948706101492 0.542233043044846 -0.23607936596493603 0.5885959747107039 -0.167657693644121 0.390666667275656 -0.12490420310128263 0.21746651155993485 0.23714857622521324 0.052239107745808394 0.19593230026539205 0.1950013995097934 0.46960597066989407 -0.1379006575126038 0.41038950080387127 -0.10634185569498383 -0.32409833694434553 0.3064625755326624 0.5290694950290984 -0.25079272372864386 0.5693065499474234 -0.05448109076981092 -0.27349613217558955 -0.05198683252791804 0.307357658449018 0.4298258151134343 0.06558701264715654 0.48412072125437894 0.30555997540606133 0.2095542161756307 -0.22574783023206796 -0.07980657936094122 0.298408271216295 -0.17381667053124708 -0.194426937459812 0.01847687814265455 0.0742704421225166 -0.22339432076974525 0.1633412683508204 -0.06798089363094069 -0.21843350895957003 0.0017940233393007573 0.10849431077341663 0.2002807689652764 0.47771568462061037 -0.19350976530863262 0.001611929731657213 -0.13263062931325076 0.5684141547158174 -0.06402732762412117 0.47345691012359103 0.12726382843742612 0.04233487161320976 0.4329288522159538 
have 0.1892169847672947 0.18998201140289797 0.15204633321914096 0.13879033196018833 -0.24090875173264947 0.06994381697716422 -0.0842063602960255 -0.001298859276789936 0.014744124239895448 0.44384256704641056 -0.16062622172413532 -0.1684459910374144 0.5334212624904427 0.30836655516201594 0.09782676128760918 0.3322386038012673 0.013834740292573533 -0.22871161378074173 0.4461927713008319 0.33150144327306524 -0.03397005968705304 -0.07223101383710205 -0.05762707365079205 -0.0907230187565387 0.06218449151047306 0.11496164557644473 0.3274643970580772 -0.19744512114847199 0.016593826668710485 0.39042623469465204 0.3821446154131551 0.5060335676962516 0.3846278780403235 0.20139075558742572 0.37102035300869035 -0.05413553981874383 -0.39793732467730936 0.4714747519758071 0.005648175659380363 0.25557524693269346 0.053542045411102995 0.4710013460415045 -0.18661822278362925 0.4878435722404328 0.49035119161395935 -0.2420296063344374 0.12150456309214037 -0.3007137644328269 0.017391352569392 -0.06372804753636396 0.04314124512543728 0.2733078630371824 0.12113292816784883 0.4022159917891247 0.11159892090588296 -0.38931727986287296 0.2220844182149269 -0.11366195695236961 0.18450633269559366 0.5295916818265354 -0.1760327414072447 -0.19510526552597132 0.026926600317542838 0.1332601427416862 0.03917957968162717 0.45518370379264717 0.5089656857235962 0.5165146750438957 0.12666314383560529 0.3475381294260923 -0.1823021540193556 -0.1905203243824161 -0.33173271870519466 -0.2003637831503991 0.48183717019760364 -0.1426643666553476 0.03244065105915671 0.2165377455637739 0.3989511631500577 -0.19599034021133344 0.33521514009494324 0.16689088207796246 -0.08998238718584567 0.11872612759661545 0.11785980624246986 0.1660182658981675 0.36265431941404874 0.25226634091930034 0.46843849848363206 0.4303461177994413 -0.05279271532618676 0.5993096138232807 0.25276617431305926 0.16499299786321514 -0.03581685004155596 0.35558031930869316 -0.06310086434868922 0.03830055754983119 -0.01804293867136765 0.4131512574343149 
: 0.16044595595589964 0.19768884954643867 -0.1424474459562773 0.3333654949097304 0.11219074056491281 0.47874012563183715 0.16749357121694627 -0.08543619863298177 0.1295753556667214 0.137428459373866 0.1587440711530973 -0.1133240478153885 0.07703938855650502 0.5427266455763223 0.05851212075125421 0.21902512617559355 0.5786504771493648 -0.2688912567525761 -0.1426904540617699 0.2623263921443706 0.19622946543728115 -0.24831718771206515 0.0877616831108247 0.4394385958464048 0.3781167349260387 0.3295166822466758 0.35616847777361305 -0.22332343917952494 -0.28305648061177074 0.08869555340106396 0.2177299102288177 0.19524856704212007 -0.20887368431436423 0.4101958021814053 -0.44041355603459287 0.010263137561216386 -0.17735664197283443 0.2684432982904286 -0.2174512075726884 -0.20948490095566497 -0.19880705300286713 0.35548311621219914 0.32236239750710105 -0.07346413213546076 0.06268202083907735 0.29561690195978496 -0.21953039693094067 -0.2060656118685857 -0.037199022365160386 0.6170970679191862 0.15423286233393058 -0.18252538146201353 0.5676064760392407 0.09706233725597996 0.49608152899181 -0.11282214965473134 0.08399415464970465 0.5229502852515377 -0.29796456286127343 0.07643782009698719 -0.06101207924992582 0.35012615178952167 0.37033368622233326 0.2324412390676955 0.08875372960079904 -0.14908303293513508 0.5506222594882478 0.3864869921340558 0.46919219376001264 0.34131764336977105 -0.07521694376532163 0.18765854326014061 0.13524108219113964 -0.09278676658945095 -0.22243008479903936 -0.09493864528938557 -0.2046850949669413 -0.016305418243204438 0.2639370833936343 -0.21707466232995362 -0.23689526467811708 0.478264075121986 0.06569464911275158 0.42975309119813254 0.5502079080248141 0.428417092918396 -0.21705679497559008 -0.08402500556281614 -0.2700700492209165 0.40493228033474077 0.44338239157268144 0.39117505469994907 -0.03266314642148217 -0.40608591881903017 0.15539260596358165 0.26270352983409023 0.03808321957564375 0.2901366472532123 -0.23883991043367042 0.24396434833725827 
on 0.18677139446186747 0.32546441079962857 0.6273611800186457 0.22560343736212202 -0.1921032906329354 0.19374622133188107 0.16920138452070316 0.3877236448898751 0.3967121440889596 0.2290920188388642 -0.043800135498752064 -0.2519781999129312 -0.19136741021755604 0.03762542102310287 -0.14347790848319134 -0.12314218539650705 0.5381029935478474 -0.15180523282423009 -0.2398388360796534 0.29304528940150704 0.45705068432083235 0.24201937824249176 0.2783698165311285 0.0749195510377604 -0.2376666000920623 0.42401153093415306 -0.35432314038383667 -0.2530706054715637 -0.11982606998405176 0.3796796011374162 0.3023765009755046 0.15892508716903062 0.23182567895693423 -0.06929559952063119 0.07461422911521698 0.19421106609058145 0.08943380029117498 0.07294338491188748 -0.016478803063973452 0.25286045857213996 0.06984202201895566 0.5187697967235237 0.6155539743092601 -0.14653126927734894 0.5705373258139715 0.12376204140924718 0.49742442165685835 -0.20834156491998357 0.3182814388428197 -0.1560966712932267 0.3207175328413234 0.17670964624682467 0.248385773768289 0.17946250373205253 0.04890235645051017 -0.1877679656010055 0.3118394458557717 0.05711862491215282 0.13116825427422574 -0.023497878767919762 0.31074040733462654 -0.11877728236702134 -0.24996960681170513 0.3403880838144844 0.30476632567164114 0.12274897902152662 0.4720516922837968 -0.06784512218873617 0.3963208082441064 0.03097809589955247 0.396049269403991 -0.26000007161235605 0.3966825128829347 0.2043211320554171 -0.2255037879718719 0.4742049041106696 -0.2553584474700481 0.1859590297866191 0.3777627892113421 0.10721751884944962 -0.12999520888861613 -0.09172838399730923 0.34043372496683755 0.09345851282372433 0.336696904525782 -0.07991600760124244 0.09353101879131573 -0.05680650419343948 0.25807610248190943 0.5546456957626453 -0.05783667782123185 -0.1390810883995535 0.35457124335863005 -0.47014255566601204 -0.2082748457552016 0.45601861447782693 0.027677188607567932 -0.137833042729386 0.46698811624878583 0.4262052739239554 
's 0.15911112395094573 -0.2143400937545335 -0.09785836768315005 -0.04151082110713486 0.6883291995569395 -0.004219299604037442 0.3125006358743979 0.29407268251411406 0.31488436649941987 0.3367974260653347 -0.19050714270125985 0.5402395907255193 -0.03155295835620826 0.1223743016959703 0.5097962942220297 0.4412190104418097 0.2232482974263745 0.22529209350873267 -0.16411969364503606 -0.10998666234370652 -0.06406711039316586 0.25305864208819556 -0.1670961500552314 -0.12243708475227008 -0.07955214976591374 0.02307428995953956 0.12069032064576306 0.19811814792331128 0.12374927602787068 -0.2543880075962934 -0.16330739827472415 0.5645758608869912 -0.06632478440005449 0.11834403125413873 0.6101818813758051 0.5403416832745506 -0.15156324456550557 -0.11485366347328324 -0.14300811448538817 0.16967604457897348 0.3340546626188794 0.08451143540390277 0.6225380246659639 0.35972675076066585 -0.034172225703915524 0.06332471246697248 -0.1848426966227624 -0.19815099597553978 0.10432868118416525 0.08489515547407074 0.3998350385747764 0.0358351705611228 0.11260275821226778 -0.20913322087911435 0.457920129278078 0.1254270679695145 0.5664695090623276 -0.07338033762615749 0.08785414884077788 -0.1270928105297732 -0.1232472121927949 0.08370419489791643 0.06896213638697267 0.45095618126317855 0.4074658820221824 0.06368935980059996 0.05053248660652618 -0.10604077622503266 -0.24080384409684497 0.49726127756207966 0.6475479109534263 0.22838109345114121 0.10322169832092908 -0.17271176327336385 -0.005100203547680339 0.48970123939025434 0.4640016478223393 0.5223934628756923 -0.15685798761411043 0.3588815936969792 0.4505426568103754 0.2480212793769637 -0.24359645565750934 -0.17064526729286783 -0.14239405251883241 -0.10944318913030988 0.05681456251400979 0.26850399578737677 -0.1813160181238963 0.6478684100191916 -0.24594366566068904 0.5633630523966427 -0.28797603483250345 0.09354408658674075 0.2078688359543298 0.104096792015541 -0.24635580238792906 0.73065413553131 0.6049719121659253 0.36910168100430485 
Java 0.14074403855465342 -0.14031750965154874 0.20680988556928714 -0.04600118316756924 -0.04141267664845837 0.5673757472705094 0.39754603400373373 0.2438407022168594 0.26382138938545413 0.23665493324477763 -0.36319092212618 0.03725880522214623 0.03681192464096255 0.4347194271412835 -0.10608455451043118 0.304407026598849 -0.10086389987890047 -0.21842647216048544 0.1430958714848855 -0.10788933640382653 -0.15813170250805728 -0.2691696568328402 -0.30031023639030663 0.372430747740785 -0.3043596229358478 -0.3596453062877066 0.18224546866560049 -0.1873417009720503 0.3636569659445695 0.502012688987531 0.5008935519659138 0.030492157670042278 0.13400144358485658 0.3066906614939213 -0.2542186051815772 0.14480611136635355 0.10234288987890228 0.5995102693455876 0.5560726517873537 0.17028352963098922 0.26199288317372343 0.15695599111119196 0.245008853230279 0.32820206995134454 0.011707425782990057 -0.026070990911877014 0.09453301195080467 0.018646539011649817 0.34575886582994847 0.6605541044116182 0.19980630796128043 0.30980610100906925 0.5119988263913627 -0.2564689053010972 -0.3281566872195182 0.10054710383856114 -0.14783115220790952 0.3781301783943651 0.5433953122907028 0.4257616241679068 0.3353158394815405 0.1142686847175468 0.31833875736154726 0.10843243707814984 0.07568678954751838 0.1817647096882955 0.10485303947423506 -0.19282045876275514 0.3028527475164906 0.4252502517543038 -0.00011448225396402229 0.49839735729932066 0.5016740234420102 0.013185942263274365 0.30408084420615644 0.47236338649685844 0.30738760259994513 -0.0941556411638111 -0.026035623587733623 0.33025327213209227 -0.257755441345689 -0.15718611728702708 -0.3425004323639169 0.22759905781456066 0.246902212965706 -0.012829602949974915 -0.3693985995158192 0.1227500352438283 0.03183000919203143 -0.2319126068902269 0.37369031368072014 0.1388263075562149 -0.16408211120000188 -0.06638445596847256 0.5469912397334992 0.09458349898644745 0.2217616206547676 0.36000030411613887 0.245882207600451 0.032063749002391013 
can 0.4296091146478659 0.15248376172289438 0.2333567158594566 -0.33397721862954305 0.24035722115034755 0.4607161775195592 0.46751139734079 -0.18294158747277817 0.3160039541169773 0.5132048579575206 -0.05581148576001982 0.33509882701009314 -0.09885188762714708 0.5066291338444259 0.12491062097229103 -0.07384954473816874 0.42147200016175007 -0.12006846280835821 0.22532769673003486 -0.07349574866134115 0.4400810826201802 0.06766632712706902 0.31017858500244055 -0.06664594923867945 0.09623076648804378 -0.12743947996601016 0.1182188562059192 0.29741945383248686 0.1321296547081488 0.27854646561027396 0.389368261654792 -0.16336162979357927 0.2035403260490892 0.0026286948521443555 -0.32684410518721513 0.0064056943365452985 0.018879959542019917 0.4779023522281335 0.3789095489177899 0.48939357513483606 0.11872190690938993 0.21283667393495204 0.018479996016640837 -0.13698633854837616 0.08809753201773511 -0.18280158368848462 0.11514714358584198 0.12053102424725379 -0.21189918739878688 0.5323201223485773 0.4259561017550837 -0.20111379520921188 0.3325014074541636 -0.1952940139650095 0.07918753938987642 0.43706578576775096 0.23387085377773836 0.13312691796474665 0.2434268152759004 0.26538312742108616 0.24829972882841714 0.35562592209047905 0.41524405569701817 0.47494091303989805 0.36919968352035765 -0.3803457054426978 -0.2776980513740989 -0.2905211490802653 -0.20931464564740707 -0.016181800163599876 -0.27246059335620715 -0.1736798799068203 0.5748768917177043 -0.28643236409639206 0.3190882135920069 0.27113056706353955 -0.24868089534919258 0.14834683028499324 -0.10136128614011945 0.37303183613962876 0.1801137610561636 0.49495624964799106 0.07388188084749794 -0.21032993549377738 0.29804724078825356 0.5162699424948946 0.4931054667371665 0.42580002995751653 -0.21488359398847678 -0.06366066830145584 -0.10713048527747553 -0.020057107318595894 0.2795053165467351 0.4148707368884253 -0.06646699808734628 0.3555945244995172 0.07842952163189103 -0.17536517442564253 -0.1752875355896 0.5889408868222432 
as -0.1379179990553776 0.17047213677205186 0.41964230964606475 0.28050049201963734 0.18291238148853284 0.1555885161285794 0.47767772520289953 0.08886932301980062 0.2205388449644527 0.004957065428177143 -0.1188021865223135 -0.21528541467366039 -0.1723038409848039 -0.027076104252359984 -0.4125661516443968 0.10536876513884243 0.41634336249622367 0.4752226764779933 -0.2770423099740385 0.11930466461949814 0.33551878607499735 -0.2370010556982814 0.3646759547192778 0.6490978553506588 -0.016582593453799418 -0.1749876227826079 -0.049350293924533294 -0.08906661117685433 0.1745012561145898 0.4211603051310049 0.13813600168172793 0.22892773141491388 0.28737323997779596 0.3340546359239438 0.29473649697200494 0.3204154509125565 0.07576411458152202 0.5103699893468793 -0.12377453535118395 0.19400560270537862 0.4438079764209686 0.49740541383753845 -0.12728369844100756 0.18927731061543865 0.049692612262828735 0.06802218158605067 0.4478153695155891 0.1543866536046102 0.2351554285216676 0.0721966279653111 0.006267070427055801 -0.06972415846729195 -0.14853329139147026 0.47615656043383925 0.062336876725146824 0.28152958549407053 9.352876288368792e-05 -0.2531103346658318 0.3902226521692095 -0.16913972579126962 0.39729639832871266 0.24578045376608817 -0.21258524378936966 0.30359732836104164 0.10143628738785074 -0.28036309285775185 0.17347207944410312 -0.20669834149944505 0.5452290844914822 -0.1510744391230845 -0.09377794631293215 0.052012330333459374 0.15042673940472712 0.1931177725016773 -0.005267716600357146 -0.18559463610555907 0.33784184574042986 0.12205408608987918 -0.13036181949764744 0.020239523142887635 0.5283259314095718 -0.22188259683538175 0.24075604814799498 0.2389158024307525 0.4674933233340061 0.07852552549232569 -0.3342134787371808 0.3012941562605866 -0.09543206690711549 0.46545367687070766 0.1986783160008115 0.6389166262268339 0.40662495539677806 0.2575314002283036 0.05907261776841737 -0.052628234535456585 0.0733226878258197 0.3729726116683887 0.41963564190346214 -0.07656189694385414 
n't 0.015361507246203497 -0.28327201871977614 0.26299306025236574 0.432354360270968 0.107078235934445 0.5855013167810544 -0.208509881278064 0.3650326847960004 0.34649726047113183 0.42678230590349686 0.12360595009970744 -0.10633421056808472 0.09100832075751687 -0.05037195340229951 0.26976525399705265 0.027567650837082243 0.02260662516463783 -0.08161367339384547 0.23671242229901582 0.39169782619439786 0.011908310683187779 -0.09408647814835835 0.3902188690728649 -0.2832901950924024 -0.12156306043221522 0.34614511531115816 0.16153293298852328 0.6112154552154958 0.04136318251082643 0.5675883247539073 -0.02376875969500026 -0.08843385657344206 0.3043729883260377 0.11021453469114456 0.018034976480317568 -0.10840744443480896 -0.3645599583529617 0.5726468073263962 0.4147524408914257 0.2841868653383602 0.22303838258833783 0.4240191288716129 0.03363604105826681 0.5309707149741841 -0.09432064007006037 0.3185926647032737 0.1672766312467054 0.33366040561745497 0.1463321395553043 -0.0016119049257672113 0.2406883457580967 -0.18491385656028345 -0.26526964084769283 -0.0947100882106407 -0.013235621527405827 0.4613119006337655 0.25296408441748786 0.10791280002314915 0.3802098579999048 0.29071470025890833 0.07501353795106663 0.498559563313913 -0.45009079913266176 0.15424344924859656 -0.05222243941341486 0.2782726357972051 -0.008615049353473708 -0.16963055302762953 0.444383578650893 0.10014468962426748 0.4256118279640267 -0.23271897959247784 0.03064693943486421 0.21278897919770012 0.28289855181559864 0.6984732922712763 0.43570536638639695 0.5755526155543337 0.44624744879722167 -0.16831341699433638 0.29767645308753554 0.012139112320234947 0.24648496942879353 -0.33380303428606145 -0.03920409593751976 0.08066635756620878 0.27138808874064574 0.6754490530724628 -0.004574901543030321 0.20292642173230002 -0.1124181870205085 -0.20443398590182305 -0.2166664729691848 -0.048410163588010736 0.2585053173227541 0.3959512090786538 0.205472581236736 0.45107557570147866 -0.16733128876834882 0.41259706111062716 
do 0.23776342329702427 0.31843847620736476 0.0692160349683417 -0.13318264354247522 0.3060321940946824 -0.2665198339639937 -0.24343483792740644 0.05025144066679392 0.4211402345798151 -0.06656440184511649 -0.07412601213942391 0.3137684985358941 -0.28086352890330074 0.047397794377766214 0.07606878738425041 0.20139314515089088 0.07477132728296677 0.5176175392277937 0.5111732022749925 0.32879942560520403 0.0850267207814492 0.0201655150135993 0.02828120126072957 -0.37711582840007773 -0.3012302747244691 0.03906680403646511 0.25490481407234017 0.5046677964930747 0.514149088825324 -0.10230573118812211 -0.06414590530780387 -0.18271965936020026 -0.37181463355034955 -0.07877803886278559 0.22841790532642728 0.33973700074693025 0.14792961248487857 -0.26985551841673344 -0.04942920643112007 0.26016746023442877 0.192801393260501 0.427387078471309 0.13188718388491524 0.5114717487391156 0.042613680243981704 0.11659549101707664 0.10986605239683832 0.290125403999913 -0.16406331184586914 -0.0794011291467245 -0.36933354735938034 0.1508912587398735 0.3289901215308102 0.4993179313630423 0.3600933125407575 0.09333088408120763 0.3774292107276431 -0.28985984081770916 0.4182518940248244 0.5262633927949701 0.1628532081188558 0.48357017572010624 0.01372024009720144 0.13660078778769913 0.1497319717887213 -0.024799959932571662 0.28539209023178896 0.3852118151486239 -0.1663035412749802 0.006742743219568646 0.08054234472015764 -0.10532890810481155 0.05198848068995911 0.06596906262701148 0.5109357530348169 0.2736880639180633 0.13426839219799452 0.39339482178970225 0.13220843833192306 -0.4019966477518908 -0.038056929250249366 0.04584771069334735 -0.30426281564523133 -0.39132765126248037 0.031243130275802087 0.2850564945685237 0.13088395385844817 0.5518629769992381 0.3352493260705248 -0.1802878141656088 0.06360691579150962 0.3060222975448381 -0.32853870081212894 0.3944849265618967 0.48844584665093244 0.33935667845172296 0.1657376948839974 0.21063149383261479 -0.34526687795854644 0.11702221712820891 
an -0.09841420475090418 0.3597913284952115 0.027959318742205034 -0.43349924169563947 0.29000394080641395 0.23170516450764725 -0.31382749269342064 -0.310877231095421 -0.3015418872039657 0.22666193552101258 -0.08164724085618165 0.36444063991329 0.46437461653538004 0.4992202167706435 0.04804625478747401 0.08529524077386916 0.39056350705927245 0.5878861976298071 0.25251873378108886 -0.2531702910945762 0.1344114140558661 0.28760481395351867 0.5497173363478105 -0.05761322555347899 -0.23051967138508944 -0.25355147498829406 0.34732409873985753 -0.034731452165051954 0.03027637998710473 -0.009959413328220604 -0.29220774221102136 0.5314044630205697 0.022531097245923896 -0.008650196195206166 0.24621241606898292 0.3119200658539272 0.12346791791156192 -0.15836872720096273 0.2458639554560286 0.26494817504771156 0.3524298477635345 0.42113493978686833 0.056217522211476766 0.19481714491539462 -0.33714130066689646 0.21619332859601442 -0.3669085952541737 0.4055539898180186 0.21467451888955105 0.05086951080859765 0.0985860885936784 0.5646479470669516 0.43476198262144505 -0.23561595293793802 -0.2370566608302423 -0.20993833990775795 0.4027962052287207 0.38879474346905624 0.419479018470907 -0.15396655485807026 0.48105349237512257 0.5389137251533855 0.1298342773540917 0.32502707713769696 0.27003789931720373 0.13747489678972455 0.45159920506832785 -0.15144760101991164 0.05780344628727079 0.2905880332270757 0.09164910344515242 -0.12088567421046065 0.24603502521468307 0.4435092225713307 0.49691838691360407 0.4704229205891091 -0.16729751691240452 0.055433948204308844 0.07692621861042284 0.2844989869514797 -0.115038636079979 0.3709033897435827 0.19514652172144684 0.28651637723014517 0.3595751246343092 0.2964289654148728 -0.006464612445980752 -0.08601302568729915 -0.20927458766365767 0.2352405320360406 -0.32726285010003153 0.16076781961787087 -0.1361045807360303 -0.12511937233165496 -0.10792427777977273 0.2878004713243422 -0.3205917558726134 -0.1825249413084236 0.04631473200734772 0.34703807629443006 
not 0.08011824627094175 0.33672571409144714 0.26927848239981356 -0.15282638204838894 0.30726738988748675 0.21978023310158043 0.48375324025055516 0.19879981282320727 0.10416499591958465 0.08066920523642654 -0.06085764713380309 -0.3082351881247135 0.2653916891740182 0.22023969929934137 0.19923811562912674 0.3090431597402914 0.35064211002633244 0.11168652574219154 0.021054836452197752 0.263520492509682 -0.069610311426801 0.4519010269088891 -0.08933641277177838 -0.26959553799619485 0.375316239372475 0.3246580116741895 -0.09671274578273667 0.04947938278302607 0.14395625272548948 0.32678768460767904 0.49785439847749946 0.05253749988311348 0.06160970154469569 0.17976474970200168 0.015176661523082663 0.07491845147726965 -0.19231651119681573 0.3183804002959779 0.18540899327561827 0.025971473820052215 0.3336212065686462 0.12190459378463411 0.24773991795940453 0.18157186849514234 0.003852025738815477 0.35528935246132387 0.20680302944083187 -0.1525353686423872 -0.13542972242185763 0.4875392160598274 0.13724615887728456 0.1317767941626247 0.5496036549101958 -0.2536461236614683 -0.02362557255505518 -0.14545383423900152 0.033881804583932994 0.41143650482864574 0.11199944723597725 0.19670913805199167 -0.03480471691969627 0.16131400180592656 -0.37922561808159766 -0.037508215993592005 0.010152381471128796 -0.07999764338209067 0.2786247438806042 0.3786777910614337 0.38161538336481055 0.041503095767912994 0.3658685721847571 0.5298893309002664 -0.0604221733286209 0.41790846510699237 0.1613533751448794 -0.0458945533967723 0.3411919652476149 0.028908516126632085 0.5759606467189093 0.27212532619295576 -0.09161948797147751 0.07982469373238038 0.25700164338097736 0.09866951460494071 0.30683005637069866 -0.25293294983904846 0.13233961925959176 0.24467609211818367 0.28988738660334884 0.1336754969985226 0.3377871896787901 0.428271994277195 0.22418822463591503 0.39399847721928033 0.008637952481535278 -0.15527157987771828 0.5260484448853366 0.2081877275671525 -0.21328233139306466 0.040916352189926286 
but 0.2789661668906952 -0.09576125250599266 0.24430955786981126 0.24873883759062806 0.5775378327468409 0.27067837373828324 0.41638912144022955 0.46757009906170827 0.41860795487323543 -0.3230210627231125 0.5112942437577721 -0.37381497698832994 -0.18690526772600236 -0.10373444360631993 -0.14230420318133566 -0.03674954983604015 0.25736950843473483 0.3962764845487759 0.1604161720500483 -0.13503460251856245 0.07017004142622922 0.25449885971227587 0.32245653549475956 0.313309997254731 -0.029374015700531747 -0.21951522130707485 0.26111377990380286 -0.17993788054116716 0.21257864731624762 0.4259945479029213 0.36554774761623804 0.04498278803943939 0.026644519809984994 0.3889563947389623 0.12038040711595828 -0.1471581182507157 0.2883308793572118 0.07725963490680804 0.04176199010815685 0.44981900132502456 0.47478359354635674 0.5380035429668172 -0.03606235361561519 0.17696189731507173 -0.2136692617749914 -0.20733202065700757 -0.05819150184767261 -0.08542538151814794 0.2396123266859031 -0.23132412495807209 0.20496436958291742 -0.24740675046112554 -0.2872895499561064 0.11490372323809023 0.3826108054445311 -0.17313969138061924 0.44332713025310205 -0.29607592499944785 0.4541753142083762 0.1909951397801917 -0.22945421054676687 0.4600869162791243 0.25062090674388343 0.10779301918785288 -0.0466697509610708 -0.2845754671791325 -0.1490537923278106 -0.2444038921050304 -0.3235881239557773 -0.26655662743682407 0.4966531847820082 -0.040848721752914 0.1757380082875873 0.21269821930971228 0.2799033115771369 -0.08926885547593699 -0.0062434322493519255 0.5026811836352807 -0.1696531709813732 -0.18020008555602457 -0.13842723825843598 0.5448328812597252 -0.3182982046908125 -0.15761886360398994 0.28219296042048736 -0.24288665477284782 -0.3371325879359257 -0.11074018750941177 -0.04922900615017797 0.16067134520552517 0.2110745742357864 0.204234164789282 -0.03063072677691428 0.3445982713950767 -0.15170192228843318 0.5654531325360495 -0.037573994206143393 0.09303993486768866 0.22006289701351575 0.10554509970085871 
your -0.2536928329107946 0.2393615863575451 -0.1295022558070668 0.507759935249556 0.3944131170612664 0.14018440211444425 0.23567266782889248 0.07600628459150982 -0.29949952604721386 0.20465617524020616 0.01148479187429557 -0.3732592969258467 -0.32104812386324505 -0.15467581899501676 -0.09858586976542588 -0.3449856908907983 -0.26370691552428593 0.13988354810271583 0.37120374458105126 0.45558524059852806 -0.2379808245635293 0.08020170309779001 0.4181397158295613 0.0841204191755904 0.21457199888415282 -0.1886595476987215 0.1996285194031377 -0.13263531322590588 0.505434014576592 -0.012037285099837812 0.13074797784172895 0.23804930141149278 -0.05822315069212149 -0.16790483618915344 0.010109463653626822 0.4376541454788266 -0.11304331491490353 -0.06261776937911526 0.21777603107227064 0.28884389728214604 0.2791999471278045 0.20854821995430792 0.08091508829406968 0.08508894748614404 -0.011711856867706387 0.2923875412033745 -0.06652397852430285 0.04699547087405215 0.04785011806089051 -0.03300866639999574 0.4610540342328991 0.65686324381551 0.39234380537943936 0.1838165749847856 0.1630568728761668 0.47391074584077725 0.47792094924716716 -0.19939576970552889 0.07570839789261886 0.008884237374697415 -0.15357579783262842 0.1309371938963676 0.28791004535919335 0.030341915772629322 -0.33520750839723396 -0.38769116482292376 0.5529654085168161 -0.1893408793652372 -0.08942768227751209 0.5220956145252159 0.20957915500088545 0.3845521887403306 0.45134221030056926 0.588013062097876 0.3631139319584299 0.14343972813134057 -0.0026962825823496975 0.5397459781189187 0.5392455144937753 -0.10853776334873691 0.5292252986041867 0.08133319341234502 0.2650756211039371 0.24925074454060855 0.27903656424051587 -0.08432561297795751 -0.005783292381321383 0.14887445315166403 0.15732749230729312 0.4419551750303392 -0.15252368319818194 0.5945530079943587 0.31151637857256526 0.39031732011820514 0.27336124226322456 -0.24970612756113938 -0.1490400792026989 0.32153572973056166 0.5681119303763125 -0.06471121518539386 
or 0.007485522526094425 0.22724464615744372 0.4665788290044727 -0.1301305889720515 0.39008205972240845 0.3963771577975517 -0.2540452607408989 -0.03829582667370724 -0.25315957799532374 -0.4060533452542712 0.32535425042094007 0.49026221420634986 -0.18303455044713968 0.2943943238304672 -0.19751774493109878 0.1646127364305938 0.3070399500479461 -0.017435794509415004 -0.002306158531139458 0.026767215820404318 -0.00825727023412142 -0.29141398933114543 0.39471453732492806 0.30740402612523954 0.06262331439303234 0.01623722762170348 -0.19674156411392407 0.4478585395212708 0.3616553501853949 -0.22286618192169982 -0.28432474607040076 -0.17818884806291652 0.1970579459862102 0.3817203127960718 -0.0909895288728333 -0.1036943475041033 0.3771247776510976 -0.30340120255570585 0.03014211574189859 0.48490142625885224 -0.2763372048416337 -0.26817782699233256 0.06594407650935709 -0.1464263640962415 0.5016605272901254 0.4392279045980329 -0.42479545256864626 0.007093081052444107 0.3122138073218676 0.42516207357503083 0.1402556499949204 0.018362503095015605 0.4954957636833262 0.4443333909038866 -0.07527145906406199 -0.026511297105271066 -0.26311945243407364 0.34438396400703875 0.4331054725657877 -0.1906293103136811 0.19560379125590166 0.49355630355900315 0.2539831370917271 0.47598981763825077 0.1546451997118498 -0.15077710256804253 0.4221994353947726 0.5069747572859326 0.17000572865227973 -0.17493266789358156 -0.03141401707195219 0.09179747831874877 0.43975875478365517 0.4007663962807795 0.1594834357435543 0.5420200978330755 -0.15276391286926058 -0.3007706299024316 0.2955181593390986 -0.1550194637460118 -0.4551512758559145 0.42228890558213195 0.36618189482690167 -0.3696501009001703 0.09829714899260916 -0.044444413640439134 -0.3053876074795933 -0.0677477448964197 0.17483400788050502 0.2849423961072575 0.13824430818251862 -0.03943885148878381 0.3943478779461989 -0.45200799889184584 0.43323808531745056 0.06182337983682259 0.14571003667580373 -0.2698735383370583 -0.20068355525520323 -0.026304821937778715 
use -0.11329855212551564 -0.07746357800447676 -0.008203635797356636 -0.14904936023670018 0.515560625238275 0.05960566243345994 -0.1662495461343693 -0.4101535891749297 0.144455980057934 0.3794552476460189 0.38332426175426176 0.4206554531403683 -0.09769900459275171 0.0732459680096315 0.010741464998392916 0.05692323549122618 0.5037184631779963 0.12110256332322343 0.1425782587174766 0.3654764091701271 0.11215013107628925 -0.2330629399767191 0.28361629444910774 -0.27046973432052757 -0.14312777909756422 -0.3003497492695292 -0.2191877936032605 -0.16415644455426945 0.10116349925784887 0.31049658477161407 0.40111342459118304 0.4264529359120926 0.1292952795714045 -0.0526905904697173 0.34548440021098686 0.40222372402123713 0.37645374154964506 -0.10214150478896557 -0.021673851457168755 0.3650799398057868 -0.1975514775628088 0.44829427307696357 0.09907040766527461 0.47265573808205474 0.23849431739186744 -0.07609110559390574 -0.26741818143949864 -0.1212280270618251 -0.28557751669312814 -0.20174341460800874 0.2470659689340385 0.026700683184604425 -0.24236223936301043 0.30609080387521975 0.4643650594689117 0.2620884688854319 -0.28247402092298296 0.4359510937689887 0.2400843531945717 0.07777089036682805 -0.3243688846166504 0.42743245944960345 0.4670321135123634 0.4783814094416913 0.35055223456910983 0.09929911766629775 0.0497523580604692 -0.3050210210200313 -0.3477644343065452 0.2793340420072701 0.35874737655612154 0.08974628528890205 0.323883520631367 -0.15005770952843053 0.5286635985434085 0.35375923851722024 0.002719557114711334 -0.12234703567352548 0.3786649936814207 0.3487875918017895 -0.09840233876055593 0.5663937538893439 -0.031158769340560184 -0.06382623615614398 0.3385499361127033 -0.11286741458257925 -0.10409301971593185 -0.1921681152547281 0.4283729503071611 0.4791381746494303 -0.27253627348490067 -0.2966568951766216 0.38470902482471164 -0.07809970948748829 -0.23153806609702235 0.5195645413783918 -0.20056806378841913 -0.1423813040096754 -0.026997628745428954 0.2281766687439891 
code -0.018402381007249904 -0.19761244921649065 0.02599145651173082 -0.10882731604286522 -0.13879448393164395 0.507677308459692 0.2643511445887432 0.12893281929814787 -0.2914171257369344 -0.024326449223539475 0.03194412284692321 -0.2685464031376011 0.36552669931841175 0.437201480979897 -0.2739499889204119 0.4047071055445078 0.36233186539321 -0.16743701548256248 0.35417923175323435 -0.21138572875519718 0.5578378943773925 0.19480924601227165 0.28633088071137863 0.21691818880645566 0.4041220726207037 0.26231392585396146 -0.22624583732413148 0.16153045081511455 0.5251050195156113 -0.013865891089997702 -0.17005198898615093 0.38639852664473867 -0.054688185213331596 0.3902460748568464 0.23606030724559532 -0.2566295427603893 0.10035986811513012 -0.2034504210331724 0.002852373475837491 0.38834432157561366 0.13072343861491303 0.40535125205767486 0.4307685072929769 0.07177223095735133 -0.08530258568821465 0.07812178983607719 -0.044604638701604776 0.34521285749412994 0.12788828734843882 0.21204079000988313 0.0931286786595505 -0.04444634246594158 0.3771848130804588 0.3458246082821062 0.5140750134970671 0.13576343143514794 -0.1722049785005905 -0.2773254258347755 -0.016914690270168342 -0.04452106632991441 0.272395414936325 -0.28355452163473643 0.2612376019653447 -0.1908883661156299 0.11713627509800782 -0.1361186781863793 0.050553017954238694 -0.1977365189910302 -0.03701918791220813 -0.053637070396060214 0.14757146532814477 0.2583092778724418 -0.18975246749114025 0.5168165758511226 0.1519150822508401 0.30740189810057666 0.3524779051171684 -0.08695995871201023 -0.07655897523508627 -0.32090346225274513 0.28418758540783556 -0.11525271390892795 0.3407949715954748 0.2350546004481415 -0.03694646839306732 0.5608033695804204 0.0008640541777394028 -0.05570714279177964 0.2834965080653685 -0.031969717776257976 0.361102492916521 0.11497989698471983 0.06542679382218444 -0.43779664064743495 -0.2271189044522762 0.4436203735783921 -0.008169167945732499 0.2892779156459675 0.637505491248892 0.24092990136371695 
if -0.35950055857516283 0.43990332607822086 0.46384609801746846 -0.17419986743620475 -0.08206404074231863 -0.06708229862447204 -0.02910066896333152 -0.17547473031532174 0.02100159593746967 -0.027910702718752733 0.40714247271450743 0.0007371139073036755 0.0580573671213361 0.4555877458980653 -0.08758347665649427 0.10306305659742464 -0.21595935179796202 0.1669695016007065 -0.27650201112724415 0.24587742438603402 0.36616906139799654 -0.17547223357139674 0.015871695425000554 0.2723108154511949 0.04374617401235762 -0.16402417645299716 -0.16042965795674252 0.32380616132372647 0.5545860216469952 0.38428245302853087 0.09157215298115313 -0.2349017650142276 0.11293368299646268 0.49361744861689283 -0.1002057398830213 0.4905341287906448 0.45997347318224563 -0.11843610295684498 0.5500712427587231 0.42676068913119325 0.0995376128767962 0.12384370923374721 0.0015996607603831563 0.5011327891914611 -0.25576096063689396 0.4338710917866837 0.051349197570252754 -0.2785066823105578 0.31136253097704386 0.21479074427402142 -0.05364662513076046 -0.21344025466978608 0.4714506974296972 0.4570283439636448 -0.19824299871492865 0.2902909302891463 0.1531687815784744 0.3734432772889169 -0.33693038098242084 -0.252372572086017 -0.1787239897678195 0.5437762419197316 -0.51039463515796 0.22264526973406829 -0.19426444595034859 0.39221675611258006 0.4303569865871971 0.34579768430598573 -0.19397224531532006 0.3597517665107151 0.4343175194718085 0.5414974976927698 -0.288517926870335 -0.24140261137749425 0.4699177627869008 0.3224727110161847 0.046586248752604725 0.15188293043657367 -0.12500587372902702 -0.05727644307189462 -0.21542910584362426 0.39218777204011274 0.10107278635073387 -0.18837569732600415 -0.1710546091588388 0.2590268461959711 -0.22322150869476154 -0.19458912023619337 0.12467193448056152 -0.16116804248628308 0.04344199721928666 -0.05418971106630061 -0.2452747132041471 -0.18364820473172888 0.1748936859080712 0.14442754578503997 0.18976161771279415 -0.0708094555544537 0.2331747777658523 0.43326031995472636 
? -0.27855821492983035 0.24307515979400898 0.47565928143105857 -0.04571263003215687 0.45531746641420673 0.1480215484177472 0.30030933939920285 0.2981657359234449 0.02107426427485194 0.4041876553302614 -0.2372627094143014 0.28728775077809643 -0.35371420592849273 0.39044214161397456 0.3542912155425017 0.007594989911687667 0.15756524378351303 0.3091511635460108 0.04508628220988622 -0.07183223964452796 0.01875108636653369 -0.05493934469071082 0.2070894485137072 0.32210081287792197 -0.3444618211557543 -0.1880422284597474 0.47970233524503875 0.26511387243836976 -0.01713338497174559 0.24069853704282373 0.18447627781649206 -0.18890836766320643 0.3851207399008292 0.454734177307457 0.40500110369964154 -0.39007545761646994 -0.18691820926995273 -0.030239954817861077 0.12964411137090648 -0.2060867720723647 0.20809481171109478 -0.06597313886691679 0.5724090279069993 0.49102837590846216 -0.17622263176033182 0.36584083454512095 0.19428318593172542 0.39613709461564245 0.1950464333443979 0.014445436829905327 0.11482893732813687 -0.2545656178448538 -0.15831177307346023 0.2663197970254477 -0.039659406898799585 0.23769683934881303 -0.21615223654457227 -0.09611732378607919 -0.3479211416151976 -0.3081620934676852 0.0786612121462762 0.39005525467953994 0.22028235126490117 0.4335832097542455 -0.28976609174655 -0.4074922189141909 0.19861281130412123 -0.23165594409146745 -0.21334117250101176 0.09849740784582571 0.2867010929925175 0.1387776495531182 0.5204286426303596 -0.1666052128566623 0.15256976052616802 0.5319641144782252 -0.00944697513866177 -0.15045788134354143 0.4237239204381314 -0.11909365622359223 -0.1381412074975078 -0.006151757490628363 0.5103234490684441 -0.3833388109159794 -0.3179567420808606 0.46638408428292016 -0.3056912967872428 -0.08132571236538816 -0.2640090486650559 -0.15189763877692095 0.4680473002856223 0.11643032348442378 0.10680842698565254 -0.2029692203768865 0.2744470218340651 0.16589608807638845 0.34901587051662936 0.07681519621546734 0.21223658512484328 0.024255231966698685 
would 0.4421813484929362 0.4036587514886948 0.07207417360144251 -0.3092472108347092 -0.20103795498319416 0.47002650152614683 -0.13437423353127909 -0.19464851269237296 0.4157742193426693 -0.053145511728669784 -0.05328743000896082 0.3572119149541826 -0.15158976427070922 -0.19379331484045137 0.5208008202472862 -0.24364122889243023 0.41037801130682705 0.46458585335595237 0.25633656332151367 0.36202888344557954 -0.24814295300869263 0.11074074681179047 0.3857469092828908 0.00659937776913231 0.07942757195148598 0.5879802513691226 0.48665853799891107 0.3918170706694022 0.4153228973272909 0.09453227062199233 0.22955336627090378 0.1283019551559433 0.3290305978823918 0.006254546863100216 0.3165528947934328 -0.3809629384067223 -0.16296764469707065 -0.1795475102821942 -0.26013241892767913 -0.1551026504532814 -0.1947849672770373 0.4516297778976779 0.24131064195197965 0.1292742642004507 -0.12366856817274935 -0.32996146711203767 0.10826233642702819 -0.12143266621019982 0.05607351259614743 0.08460968984124886 -0.24571927846191702 0.20000596069785817 0.28085550951882204 0.09102708795151249 0.015015555417480855 0.5811580635122681 0.2893645273740704 -0.2162479337596744 -0.2119655990641872 0.36120993316593786 0.07766730606989863 -0.34318305846567637 -0.20816824019253663 -0.19803093282836665 -0.20574334117988174 -0.22758543402975462 0.3557105473143571 -0.14211873579837714 -0.2507195146384327 -0.29311356343474604 -0.21183795791488844 0.09262897037815458 -0.17934761471525104 0.421537967297066 -0.06134427742987446 0.5244730967643942 -0.35555069255281535 0.25937004849375833 0.6054970243856074 0.20816948934265922 -0.2565530043109747 0.4438557757378942 0.31814748881213994 0.3432455709940647 -0.21026243441345058 -0.08608315961100582 0.44419215416246205 0.2726602430121949 0.31401057300363816 0.5656310718642986 0.19716862882886219 0.02513106232059067 0.18753085693012758 0.3122732067735093 0.359725229158112 0.3078769722691315 0.3901532180910391 0.331446549000196 -0.15491833344465433 0.12907483264991368 
like 0.46995129545985836 -0.24478985822727378 -0.1946830420959649 0.0748260670192159 -0.007702502954122994 -0.0329059075069381 0.2798993070683846 -0.2533780924065804 0.4389145597902464 -0.06848266062405581 0.025253257501383717 0.33108040971749614 0.437987043902991 0.5654997143895725 -0.2108782872376001 0.2339505031638946 0.40964621550444763 0.35069108928151743 -0.18288321616225006 -0.1294414654669236 0.3365732273764205 -0.12287056817893276 -0.002944910687924224 0.18692073493530698 -0.4094016012032635 0.3391673703633581 0.26208194449150257 0.3073067310594232 -0.3236456650728074 -0.32008590204619236 0.08545966152200218 -0.20298788687087366 -0.3407292464865738 -0.10920610442721083 -0.16254082436911282 -0.01872003839432423 0.11321313361598215 -0.20578663406468267 0.3265269504233555 0.4504865902435636 -0.21436838966934715 0.2360717941202693 0.3715995300202841 0.547088018384536 0.19756201380370367 0.29238982998982166 -0.3248869814763418 0.0575319636706362 0.212865537944515 -0.015726305361080998 0.23937960315775997 0.35761427286004766 -0.01271976428321618 0.1236065411538293 0.518648851903422 -0.32524208294099355 0.3505543355932682 0.2808362125066571 -0.25832490299144856 0.5335538670063125 0.18657780583960634 0.5067256913311362 0.33760404576287373 0.17376495648179013 -0.09617339552885985 0.3537062941038662 0.32027207714464434 0.4165144816663844 -0.20262907209772327 0.5891932693208533 -0.18757288606079622 0.3036255808271271 -0.24358023999553924 0.3485384998389609 0.22059495902714718 0.46094001206868906 -0.13542149096937528 0.26076381574121804 0.48994843007706684 -0.24592464162328884 0.1138074755720969 -0.294807251794281 0.118830408328661 0.2814209747362413 0.41682026391394994 0.29420378891002663 0.26418678947275387 0.25485455187840345 -0.1734046566408528 -0.060894900390354334 -0.24351486857303054 0.026924018300944364 -0.014477881247025768 -0.12395746785488196 0.11329495617098884 -0.24732553360764561 0.15437336447761535 0.39273831187278213 -0.30809504568027174 0.2934552580932481 
from 0.5005927062621549 -0.14573956268756072 0.14106082783770799 -0.1371715415667554 -0.24975950130550423 0.1276372926046219 0.02909999942893606 0.4381035813466121 0.18877997465952423 0.18462456361587193 -0.2386510238620048 0.3568937174320614 0.49296093015223724 -0.11769097427624334 0.4001193440174329 -0.004880132413260844 -0.04091428032462683 0.27450377365146605 -0.01641615067562844 -0.15627920316434846 0.025174467022813594 0.2979814440405756 -0.14921567499941246 0.21860705784263984 0.24117509312905633 0.2831211547339023 0.29340739029044266 -0.2819585937308434 0.4067093427948055 -0.23454562850014468 -0.08144184957786173 0.3565536452916069 -0.30452527221951253 0.26804745380548783 0.33146139199278907 -0.3431174248511081 0.3494366098578183 -0.06957731067287673 -0.23577713164032577 -0.2095696405663119 -0.24683842545673515 0.08995395863776073 -0.28896737218862895 0.36359628912184616 0.15939396359101793 -0.31744495756949187 0.26942926327791883 0.3272926286674995 0.09543111026865939 0.18647369886192258 0.22046339091097802 0.043792193846072316 -0.024763602095631308 0.34612812599955173 0.03470690935054565 0.02092302242153526 0.37874162227546376 -0.17331086113092825 0.33760036534970705 0.5418652897343653 0.41741672191483337 0.11877988630688205 -0.3735497555042705 -0.2602526593717151 -0.23375790746038858 -0.25142020865978265 0.3780858624372852 0.3165338915033291 -0.2972296092877887 0.4040965702766988 -0.2372222273212695 0.22348886561669914 0.41868050608828966 0.01659616505045032 0.10289557514354834 0.12872773535851936 -0.15942529948606288 0.3664577472945837 -0.26262104933721403 -0.053955330844591566 -0.3696995006362061 0.2264102605476607 -0.09796890516671439 -0.15460199819080514 0.34752028606110713 -0.10869741660565649 -0.07395601263870984 0.3011120298395482 -0.22291134825128647 0.08858174364934776 0.11546402839565534 0.04233429352368084 0.4223888270089237 -0.010067919320291035 0.21125203995390432 0.47129867115164203 0.38200291215676846 0.15354227832136866 -0.22909980001556693 0.18343104696837648 
will 0.5024047760496961 -0.37805007008793656 -0.0028886015750604803 0.26363784695427916 -0.39337716214383506 0.27578151390626005 0.2954035760025203 0.32610352948255655 -0.29305558654975794 -0.35188211260617486 -0.2064842730153245 0.20570186849196168 -0.15819035707397003 0.14959635434707236 0.46984787724689403 -0.3713515891859003 0.4083531962012649 -0.20928299976843454 0.30650007413300023 0.20434845045115393 0.27973887482288523 0.35255689702416715 -0.11684460118204827 -0.06210322463882572 -0.20374253381907992 0.12623592029311578 0.38411772599208915 0.43708102832199885 -0.1837207783791746 -0.06118207274714565 0.3934274641083308 -0.08752655107196544 0.08427125627670483 0.43493339628000544 0.08819732306130723 -0.44721322626321164 0.3680912294137487 -0.37321188807984573 -0.36021522658660715 -0.23033880178269397 0.2636178283540254 0.5256085468296462 0.42573425163514406 0.24889037208718423 0.30992360026842325 0.35970691868834503 -0.18868043181765182 -0.18662600115304778 0.31676376799660577 0.04152606908563107 0.12237672083874103 -0.20413051086881942 0.38354005453774154 -0.03079694336428631 -0.33251333630044444 -0.01756409824340493 0.4334232759550166 -0.26327508858087495 -0.3905548541812569 0.12524049278090402 0.601767438944341 -0.0370930874935812 -0.20593592349280795 0.2862057498821762 0.1885393363674588 0.2888070758410849 0.008095067625088902 0.440189873791043 -0.4291791055488852 0.38251385504696855 0.2862196184289125 -0.2978759474115732 -0.205903467008113 0.23056320633450247 0.41234074949230637 -0.05902909692639856 0.2501561118672419 0.15439464337370146 0.11562780689400716 -0.07653573988532009 0.18598470193773403 -0.32129912269328803 0.000591089360318072 0.2033792654914673 -0.00747571920310987 0.4666859296328963 -0.11557802663051375 0.1743011077616775 -0.15191696049313522 0.5361844073357648 0.22703996244660987 0.4951527833998609 0.2296050192507478 0.27938637903274893 0.07043560352394639 -0.32395640584772123 -0.0959166544991691 0.029461624174365923 -0.16197167068884508 0.5223333279262828 
using 0.16223112833603107 0.41674421948218954 0.4499686740142853 -0.17955575066390517 -0.21331655496998284 -0.41632256514255767 0.23350238468890513 -0.3694171171570956 0.2838771424572837 -0.4015471316018758 -0.1406798801747846 0.349564840684959 0.3140486908061893 0.45321329189253223 -0.22042309321581705 0.29060205090690433 0.23669548657761577 0.3156437063061315 -0.15292895297178313 -0.263503670697353 0.09440786048741008 0.1661968529875314 -0.12819741557897396 -0.22339362147289307 -0.22173407324959965 -0.19007198182455592 -0.17179218769028504 0.37665825414573584 -0.1861239463187235 -0.17907240406016026 -0.15306306062144656 0.2533029727307485 0.4323073493548194 0.6012444284485386 -0.08739531230442413 0.39659920076850946 -0.0011543502289668708 0.5470172911213405 -0.01933423932244852 -0.2504476670498233 -0.09120432235461819 0.3983859993168992 -0.03134118552516466 0.005566138079919928 -0.23476284611408155 0.10923163622872979 -0.12442629095376374 -0.202964528838175 -0.33652565236224036 0.07976927733239586 -0.15304725784011905 -0.006529123071823724 0.5681008586737971 0.42060019964492656 0.46876533742852816 -0.10871495879702799 0.21493350251523607 -0.1577499424897538 0.1528628331531156 -0.1461692503554639 0.5647745442362263 -0.24605396070758911 -0.2253535085266322 -0.20611949398144583 -0.08055774381398324 -0.08873798850423137 -0.1209165781667536 0.03922349372825607 -0.36053380327547063 -0.22248809845176018 0.2803350847527225 -0.20393168720132798 0.06947751049362542 0.11034089996629794 -0.0603603252826941 0.042962404367064735 0.32780245476121583 0.35061058644637 0.34085621784581405 0.2674620323158457 -0.022762897801777503 0.20935164924383318 0.30170194245745885 0.15858126243365606 -0.08102320451407317 0.1506193755481793 0.5614375629093665 0.4113174750222723 0.16636573253212758 0.5148512182389946 -0.2087238682950779 0.4406370026750481 0.3242299247168364 -0.268225005759662 -0.2833096385230586 0.5610168051957342 0.2911346472714529 0.03746998121141977 -0.18422551671957305 0.5074827964730017 
The 0.007853538429113363 -0.3411449272087404 -0.3564207115678809 0.33765757199031426 -0.3382372772649778 -0.35077033123989576 -0.19500154658193178 0.11785752412377867 0.08286968629726388 -0.18505344963977394 0.4287669297410883 -0.3935892330432802 0.5060552644185543 -0.3588010502596775 -0.24559594915502866 0.047714182002397146 0.1430268353555643 0.5763344591819365 0.2779283391329269 -0.30780123836479234 0.03551112237292618 0.012608933984971168 0.30105992517259983 -0.27225762003497644 0.5338636822085798 0.07824048813246359 -0.2728457379498878 0.6084236367317247 0.15895016835538436 0.4331174753076588 0.1156882992386067 0.5127486841310036 -0.012686082819296065 0.17071881236454128 -0.08893916324011392 0.012125333036174399 -0.20330875457387784 -0.19362066912435044 -0.19222505606472268 -0.27056677887454456 -0.024170176632126283 0.4367365771251623 0.5307155648915048 0.38982425039877794 0.20347140892494908 -0.12119319987369744 -0.35275337225337366 0.38286291960446567 -0.2807279262073492 -0.09422241881122052 0.3222600632243459 -0.19186678855999942 -0.3093188694709688 0.5924480722599307 0.5054633145734583 0.07164215276331677 0.0488114338660534 0.44453056055161166 0.16317209305109903 0.5040912755779045 0.35488983768404364 0.12429331669843943 0.3683324143159598 -0.07888435319638057 0.18745938889816655 0.34270982487459883 -0.13888728031145306 0.24123739528052718 0.4257188349328107 0.03977301139458473 -0.22310632554618806 -0.06749116512228634 -0.08432899761968014 -0.19619663530404377 0.20720496389441156 0.15947945908550992 0.3404716240392535 0.5714355844844383 -0.09509784651860169 0.18501876513466978 0.2516053950162402 0.12216029525434623 0.04743888235782935 0.1934377757327955 0.30477099277812775 -0.07443487883020386 0.26259584272755077 0.2439776869795227 -0.3293945931419388 0.5306592722495647 0.13898589214676446 -0.20026483102814402 0.31760493518378047 0.29660317306488676 0.03624645538553144 0.14242968348761284 0.43222911719034296 -0.003557304690535221 0.3178623708716448 -0.36326613327576074 
[I -0.298878768646562 0.31158700339746886 0.35329350673375065 0.34274233214863237 0.4054296591853631 0.3024369791153082 0.3346992148620418 0.05713143247246018 0.328732956917988 0.2640779360447734 -0.30801073081972 -0.27847500047344725 0.2909726441960103 0.13293596620104323 -0.10990243287988426 -0.1477379075990253 0.02390610200567197 0.04897183109104792 -0.19583580455635716 0.35511053596121617 -0.06443567637916937 0.4847258593138399 0.21408259221036977 -0.1780523604143486 0.05287784325205818 -0.2891433992744337 -0.4029627720091625 -0.2629861036712158 0.007515304352424804 0.3614943907798435 0.0921318819803346 0.046460967005207195 0.0374878607484016 -0.26067436289834967 -0.2841984565455737 0.24758767256120662 0.12407355903281174 0.07053435256171772 0.3678380999333757 -0.020258434891086422 0.4059800387551012 0.4530677794932338 0.17761701209674996 -0.2443594022871589 0.20639709527393163 0.36417578459057837 -0.23599940009212111 0.052072088254917645 -0.4716354369199937 -0.08283451251207376 0.033838640193473296 -0.19847968906628286 0.14244115242753383 -0.07225037520124832 0.4786519133351307 0.18938442760054483 0.1810815501680154 -0.12050100159625442 -0.14371988001493582 0.053968759631600215 -0.3584649500637526 -0.399910366097449 0.24859010621792652 -0.2095485251301652 -0.08898229559896659 0.01917220893407347 0.6011891785611474 0.5049934245049491 -0.24192364475539724 0.3418998424493724 0.1021124283235766 -0.3471635271932397 0.02893404083657778 0.20426373312402996 0.12695961783802645 0.528628428038646 0.4037508228981717 0.31159407298166625 0.20602217568247333 0.23420918128328613 0.24838687920365662 -0.08401344055411351 -0.14294276386409316 0.2660316809675069 0.009737947812703348 -0.028225866528002526 0.07363343759414459 0.10127193910829421 -0.17853104642137776 -0.29459635276649293 -0.1044507882017188 0.5757524929513985 0.07161400226853198 -0.19074777796603268 0.5246601461702651 0.3790998461982175 0.060672263944455795 0.5525860339576325 0.059243116042197064 -0.029325566773771638 
there -0.33079746125651416 0.10686171155963255 0.33059305717024134 0.3922611371877063 0.5609358644796929 -0.1241729379484562 -0.1525409189794765 0.20437610463560082 -0.03741812181810055 0.042091547118288754 0.05354467422340129 0.020159025576046583 0.22138903366107002 0.054962368483549226 0.1840362924854196 0.06908569636273836 -0.3507921951796201 0.3034114404142421 -0.012794486321648148 -0.16460115712534218 -0.23768110044486246 0.4543983360028461 0.37095824533459687 0.2340655935051992 0.3098518085759849 0.15099411378053476 -0.11078385014540344 0.48032416730919475 -0.13606979422067816 0.20845844302534303 -0.10904181626616709 0.34932098602674694 0.012878910873942431 0.4901480645796919 0.38982170240755165 0.28752359506648223 0.27266755314046454 0.3055224145541503 0.16014501746898363 0.025180726745267702 0.5276277098148265 0.022792297598960707 0.01533124342661596 0.3380981517619737 -0.29791497990713206 -0.08835036889207633 0.047617709739355245 -0.09388161971156492 -0.3215049544359231 0.21143904326769136 0.19048085928374225 0.036380991172503326 -0.22572291216421844 0.05957877821451459 -0.23441950554223603 0.3618468260258004 0.29190933729303853 0.5260417009325461 0.12493396072103469 -0.0332945956898191 0.23814323004975113 0.25892671561596686 0.2148584165717188 0.03860250983198958 0.27709383461349 -0.03309667594470309 0.11351289168866814 0.511841925055475 -0.024836392512039174 -0.03352016740835295 0.33175682476794227 0.3284409285251115 0.2516289845379198 0.12377025812695507 0.01579252850218291 -0.015899352702391116 0.16156385106829507 0.40359156152293574 0.1384100259138414 -0.06197663076202234 -0.13389899755848508 0.007895128619455346 -0.2327493178219219 -0.19972274346453703 -0.26101899528992406 0.3412896263268093 -0.24709639885248252 0.464728036199434 -0.25070359676264664 -0.23320704704558531 0.4814878406578904 0.2813543679596498 -0.01480977893507134 -0.1723116394604665 0.3304788438374659 -0.2865216094734311 0.3829450136755174 0.3632461239281506 0.23489384164068303 -0.36923631896743603 
which -0.4182068652434966 -0.013026381401323959 -0.08086633825929333 0.22963181846256792 -0.21170651420476277 0.3593774451898702 -0.212645046465986 0.4626480828043596 -0.36402212383241533 0.07566858684361548 -0.1396634609351222 -0.40027131261086474 -0.03752551005707232 0.005552740309497406 -0.17672378212434203 -0.2564912672568684 0.2746849539855939 0.36556216547326736 0.40809384858563386 -0.2773058718413326 -0.2967104279487079 0.05372469918608187 0.27387569143111573 -0.2163548834568922 -0.08390155639960539 0.41009243213821 0.5167989084183875 -0.12662472921798887 0.07687192933372386 -0.32657836784457206 0.4637418731248184 0.3140956936057613 0.06905635852996435 -0.0980561320176211 0.04030592555002877 0.27599241104358674 0.2914597056792207 0.2515473429475018 0.072172353924431 -0.13082233908132496 0.19919009013399588 0.17947716449020298 -0.16913452661381814 0.2678981304839876 0.05478180236167009 -0.23354471707468294 0.1166288263272368 -0.3274007635552533 0.23290786281326636 0.35747766212143084 -0.05719567664239567 0.12348781381069639 0.3545052117047376 0.21430476158175232 0.3145995828559817 0.10384829438568567 -0.02278458260093522 -0.34534840625871827 -0.02041826203563474 0.275123543303655 -0.21498480859127012 0.4771468546078032 0.3699792915750342 -0.38621260600909285 0.05093267136157607 -0.25294355722141804 -0.1735732567339698 0.09292278996233916 -0.3621623367988784 0.4092516487733013 0.3852479504257118 0.228010324379833 -0.08812595439787847 -0.2550363867290326 0.36407052962869035 0.487128642047998 0.21076319027518006 0.558699632507661 0.5255490390845549 0.13185100082194956 0.2312755372630373 -0.2829937179818939 0.005409928339116315 0.3145786656803466 0.4525081317494697 -0.1262531398617627 -0.04549730992857764 0.37815542467436575 0.49227696540022664 0.40583483107397883 0.23618952246709748 0.531942628964362 0.4051783452132807 -0.0156302089108834 -0.17198675071269853 0.34622295373729367 0.27994097563198206 -0.38311081331460134 -0.02496301291471405 0.28571037409895045 
